class,vec0,vec1,vec2,vec3,vec4,vec5,vec6,vec7,vec8,vec9,vec10,vec11,vec12,vec13,vec14,vec15,vec16,vec17,vec18,vec19,vec20,vec21,vec22,vec23,vec24,vec25,vec26,vec27,vec28,vec29,vec30,vec31,vec32,vec33,vec34,vec35,vec36,vec37,vec38,vec39,vec40,vec41,vec42,vec43,vec44,vec45,vec46,vec47,vec48,vec49
business,0.24199021,1.5443244,-1.7296253,-2.2439797,1.1111044,3.057871,0.1126713,-1.4228294,1.0146204,1.5898113,-1.8629245,0.062082496,-3.6295485,0.39694646,1.1356472,2.608123,-0.53665715,-1.8756794,-2.0262945,0.86964774,-1.8926802,0.70129573,0.13507065,-0.13301788,-3.0701363,-0.002388824,0.7018812,0.62764615,2.0925767,-0.120204054,-0.20113243,-1.3410093,0.4396635,-0.6473187,1.0046172,-0.84506315,0.7219363,-0.77392256,2.8366165,0.6586306,1.0453898,-2.112188,-0.99159086,-1.1488214,-0.28360322,-0.8434977,1.0451359,-1.8298917,1.1650583,2.2932386
business,-0.45418462,-0.35895917,2.5383885,-0.82083803,3.0747423,0.91079134,0.82366437,-1.8814102,0.43357807,0.69047683,-1.5757064,-1.1233339,-0.95331424,1.409729,-1.8940722,2.3915715,-1.9088871,-0.65848863,-0.63731056,-0.6171329,-0.41842547,-0.011797875,1.1673698,1.1092848,-1.0322185,0.33168945,-0.46309584,0.4151926,1.7601037,1.3319893,-0.0052486253,-1.2752545,-0.19646934,-1.4061942,2.1173637,0.35992214,-0.09907589,-0.33717567,1.8527459,0.9548863,0.4413193,-2.1853635,-1.9670947,-1.2346295,1.5038863,0.022258295,1.3851054,1.4961573,-1.2889606,1.8331826
business,-0.10575273,1.6760191,-0.83893704,-1.3707887,1.8085492,0.12550451,-0.74688673,-1.5375847,-0.1172421,-1.0931169,-1.290287,-0.90152544,-3.5443087,0.1682188,-0.8393378,1.5043937,-0.759699,0.9657213,-0.49156195,1.8590947,-0.33048224,-0.96787816,-0.89128053,-1.5261863,0.119721465,1.5494249,0.96348685,0.39334762,1.2837552,-0.12467812,-0.92101973,-0.5175705,0.42633647,0.55378246,0.007951077,-0.110194884,0.11835929,0.19194962,1.71506,-0.27526778,2.8260374,-2.575173,-2.3219066,-0.3658581,1.5748076,-1.1648389,2.139742,0.7890454,-0.35549793,1.6137998
business,0.99565333,0.7896353,-0.16214174,-0.9860179,2.2986097,2.9394624,0.3137449,-0.4162938,0.93452036,1.6660208,-1.9073496,-1.9519378,-1.2048613,0.54674476,0.5260632,1.4401822,0.36423442,-0.0669111,-1.8294597,1.6313426,-0.013226502,2.6330516,1.258991,-0.25798687,-2.7149901,-0.33763206,-0.6396986,2.0729873,0.9244029,-0.020789923,-1.5490127,-0.84512603,0.40995416,0.6465148,2.1799104,-1.4205383,-0.20312117,-0.85273474,3.0610514,0.43661648,1.3490785,-1.042372,-1.1760359,-1.8676106,0.096171096,1.5273162,1.7958716,-1.530347,-1.7704709,1.1442518
business,0.15303105,0.040656958,-1.284926,-1.4396626,1.4512478,0.8176552,1.21128,-0.43062246,1.3331497,1.2817014,-0.11553759,-0.45932448,-1.529643,1.1672865,-0.62500244,2.8121,0.05634435,-0.2645405,-2.0973094,0.9925829,-0.27026284,1.6406047,-0.94668216,-0.05649108,-0.72277325,0.63603026,0.4074703,-1.2351079,1.6495626,-0.36563775,-0.5355683,0.5628787,0.1962966,0.6875665,0.27423927,-0.87287545,1.079811,-0.27757958,1.4094315,1.5217162,2.726128,-2.3305259,-1.9270482,-1.382968,0.9195767,-1.0971981,0.37717423,-1.5513926,-1.1443584,1.5046086
business,1.2263542,0.6243508,1.0889668,0.7074716,1.3400866,0.6882794,1.2330045,0.20290613,0.0791934,0.6516708,-1.5401176,-1.6411653,-0.058577046,1.6607295,-1.0245191,1.1511772,0.027679281,-0.660586,-1.4426534,-0.07006335,0.4085128,0.26318663,0.50000566,0.87978876,-1.4815291,0.25864828,-0.27713957,0.509148,1.315619,0.43765503,-0.7018547,0.064566806,-0.30505496,-0.62896997,1.0024606,-0.80821353,1.0903143,0.8544086,1.8034908,1.5623173,1.4107604,-0.44151467,-1.4366958,-0.8536318,-0.6467526,0.0074383873,-0.568104,1.3604385,-1.3924141,0.35894227
business,-0.42781362,0.64450747,0.17111744,0.4999317,1.4564525,1.19169,-0.98954135,0.37840465,0.5113835,1.9790632,-2.735905,-2.094428,-0.7804549,0.697394,-1.2956376,0.52270895,0.32208258,-0.023261322,-1.0302169,-0.38115224,0.017873656,-1.0016785,1.5664665,-0.35016963,-2.7814264,0.5681523,-0.4038666,2.0137112,1.1135969,0.7269204,-1.9995255,-1.4197012,0.3241292,-1.2672497,2.507082,-0.33139947,-0.123063095,0.19951148,2.3402007,2.3635876,-0.11504117,-0.5236635,-0.80674475,-1.7446936,0.5109609,0.31156182,0.8269626,0.88483906,0.0017732328,1.1843107
business,0.23128688,0.036585223,1.4975047,-0.8409271,2.9182785,-0.8118126,0.7919951,0.13997686,-0.58699167,0.58149433,-0.24016328,-1.5684525,0.72684664,1.7624562,-0.3400993,2.926181,-1.5647811,1.7474858,-1.4414449,-0.73164254,0.29413906,-0.88428426,-0.8861471,-0.031593997,-1.2779794,0.15719944,1.5281094,0.83051795,0.46005255,-0.4283503,1.1849266,-0.44603598,-0.7940705,0.0073705907,1.686008,-1.5405929,1.277899,-0.17927603,0.73605883,0.8009306,0.3189014,-0.45644546,-1.7604806,-2.1974018,1.1349094,0.4688974,-0.0372392,1.1972632,-0.5291826,0.019602973
business,0.21529171,0.82827276,0.039848674,-0.39774677,2.1418586,0.106114574,0.8512155,-0.18968627,0.32872155,0.40722016,-1.1009233,-0.54703647,1.055317,1.5913666,-1.1095978,1.3316323,0.08379286,-1.1869208,-1.0635097,-0.4636324,-0.6488935,1.5695285,-0.06251913,-0.5417558,-1.0591667,1.0799841,0.09116995,-0.28156623,1.88703,-1.1019925,-0.08291108,-0.6492545,1.3213245,2.5051813,0.90060216,-1.861365,0.050962064,-0.3124912,2.702817,-0.83227175,2.2055125,-1.6249799,-1.3437086,-2.367032,-0.45538124,-2.3282692,-0.3264916,0.94023335,-1.4273628,1.2115816
business,-1.0105633,1.0617803,0.16759577,-3.074099,0.14784281,0.20506164,-0.3174515,-0.03229151,1.1231389,-0.70880497,-1.7520286,-1.7650511,-2.0707595,0.77873296,0.51207393,1.3989942,-2.1340098,1.8337389,-0.92202353,-0.21900977,-1.5693768,0.44247007,0.030750783,-1.5719165,0.2852243,1.2286805,0.77094567,0.44735685,2.213958,-0.33743387,-1.4453878,0.34103638,1.1248155,-1.2692639,0.537183,-1.166285,-0.44547004,-0.40060204,1.115106,0.67122763,1.0084399,-0.46317512,-1.3984404,-1.2860497,1.2831701,-1.607572,0.8073616,1.1788423,-0.992584,1.6536207
business,0.94420683,1.2445421,-0.4635658,-0.9242454,0.46509203,2.0274732,-0.18400308,0.20075497,0.22275092,0.81267154,-0.50876385,-0.66342986,-1.4884751,-0.0530746,-0.76657176,1.7193387,0.48112413,1.1277455,-0.9840161,0.30608016,-1.0682871,0.3873085,0.18140674,-0.3192723,-0.95655876,0.5666924,-0.025938096,0.67302513,1.0819438,-0.34337,-1.105833,0.22610298,-0.4695,0.90144694,0.7446929,-0.682815,0.60082823,-1.1367856,-0.1495409,2.0744238,0.0096768,-0.27893245,-0.37310088,0.51592314,-0.89323187,-1.0971866,0.15843098,-0.90755254,-0.7040061,0.4197967
business,0.36130238,0.97895956,0.34765875,-1.290422,3.5640488,0.59238,0.2711103,-0.86649024,0.2815594,0.9524024,-1.5201955,-0.8715461,-0.42167354,1.1557741,0.2281687,2.3753598,-1.2268035,-0.009824606,-0.504967,0.26868275,0.21398835,0.26655245,-0.4862797,-0.042445518,-1.00568,1.5416266,0.6352317,0.2626593,0.12299736,0.20069085,-1.2009724,-0.63705415,-0.32115507,-0.09966064,0.98841447,-1.0595596,-0.68265194,-0.5484046,1.358916,-0.7272302,0.9231656,0.028623905,-2.7299352,-1.2550533,-0.47458154,0.74533486,1.6755908,0.75901276,-1.6064236,0.82555467
business,0.43176055,1.2446861,-1.7487828,-0.9995521,0.9652215,0.86148113,0.88021344,-0.55323285,-0.30302224,0.6285399,-0.7027429,-1.3736974,-1.9253398,0.21557507,-1.3847677,2.0362716,1.1220706,0.50248665,-0.81425834,1.2889241,-0.5064902,1.5425225,1.337873,-0.4678441,-1.7298527,0.11469321,-0.7666916,0.43255773,0.8113614,-0.5534989,-2.0348432,-1.2421854,0.11326814,-0.7196087,0.7254703,-2.2444253,0.8134155,-0.22119127,0.4091583,-0.31567463,2.6954968,-2.4048727,-2.676626,-0.3058407,1.0395278,-0.5491081,1.2465976,-0.5760573,0.10824663,2.1347058
business,1.4361947,1.1159204,-0.59780574,-0.39836216,1.4097655,0.54605746,0.63531065,1.0470399,1.3397719,-0.30237544,0.20131199,-0.68919647,1.039936,-1.3981489,-0.37561148,1.0787643,-0.7945424,1.7634089,-0.5059095,-1.1652529,-1.7703241,-0.12550174,-0.42567754,-0.3560034,0.3610527,0.037809234,0.8138077,0.20081064,3.0484023,-0.89700353,-0.7771035,1.0592774,1.1222942,-0.41415727,-0.9015331,-0.10267675,0.013604519,-1.7724134,1.5993707,0.54870725,1.0422901,-0.9730781,-0.60031015,-2.6161885,-0.6561129,0.6006259,-0.1997309,-2.256133,-1.1661727,1.4140878
business,-0.66876453,0.74268943,-1.8989404,-0.8526374,0.5969791,2.6270528,0.013064165,-0.121739455,-0.70077425,-1.488849,-0.83649015,-2.2945523,-1.8048158,-0.0020390204,0.70666933,-0.2510158,-1.4612021,1.3432679,-1.8274448,1.5380217,-0.64239055,0.29671025,0.92499834,-1.0238985,0.6348172,-1.0130093,0.024603635,3.929956,3.2583518,1.2616801,-1.7418909,0.4019016,0.69034684,-0.27265427,0.04535733,-0.824044,-2.6344664,-1.5705632,0.40060237,-1.1808614,1.8172467,-2.6966887,0.21137822,-5.249015,4.774247,-0.1340511,1.0371397,2.3433638,-0.7632942,0.466954
business,0.49901724,-0.15970533,1.6094228,0.47140256,1.9306113,0.9015694,-0.41641805,-0.7461932,-0.063895255,0.82299423,-1.0510075,-0.603006,-1.2727151,1.8558443,0.57211226,2.096832,-0.48907974,0.913251,-1.1546563,-0.29985505,-0.36555904,0.08639386,0.03146076,0.09431494,-1.5764713,0.32723907,0.73784864,1.4860942,0.6407173,0.59167016,-0.1047796,-1.2406394,-1.8327756,-0.2157167,2.0360248,-1.3131393,-0.0023293449,0.4442393,1.1943527,0.6511947,1.4053364,-1.4567885,-1.1401395,-0.99534273,0.44212294,-0.9492724,-1.0900854,2.0693715,-1.09043,0.4289212
business,-0.20981841,1.3635808,-0.48509967,-1.0629625,1.7556095,1.1546738,-0.810424,-0.5102253,0.88522756,-0.20619223,-1.4661266,-0.05137704,-2.0983152,0.6837734,-0.52886194,1.7937207,-0.7539631,1.5486279,-1.3465335,1.4809289,-0.66414416,0.39862177,-0.07012551,0.34052253,-0.62800837,1.2720907,1.1120071,-0.5837593,1.6259995,0.18236345,-1.5626506,-0.5424313,0.8300805,-0.12564401,0.27132824,-1.0331798,0.26458752,-0.7102384,1.0129002,1.0288247,1.5349036,-1.0946028,-0.38957545,0.4834558,0.7010223,-0.014125633,1.2522576,0.00145595,-1.0035305,1.410394
business,0.112195015,-1.7347809,-0.55059975,-0.34418806,1.7104344,0.40553877,0.5078774,-0.4146065,-0.56531334,0.34621504,-0.35155368,-0.1412432,-1.0270182,1.2329872,-0.53812206,1.7489631,-0.10384366,-0.0134616345,-1.7410063,0.2163826,-1.5339683,0.90448403,-0.2384854,0.16453423,-1.5458536,0.71179175,1.3940779,0.1846125,-0.39120737,-0.89282626,-0.07044751,0.32871994,-1.1916515,0.547229,1.6654557,-1.2673874,0.81188434,-0.32294178,1.3943594,-0.31250075,0.80603975,-0.79390323,-2.5578642,-1.0404986,-0.06418562,0.4574094,-0.45830268,0.6054385,-0.49916142,0.5373448
business,-0.3319609,-0.45330474,-0.9114426,-0.9351174,2.1106415,0.24642901,-0.77554697,1.1290836,-0.6591654,0.44566453,-1.0710806,-0.08239971,-0.38503844,0.6412703,-0.1872337,1.6281809,-0.75355166,1.272976,-0.07506714,-0.48719352,-0.89174926,-0.21710622,-0.2642844,-0.32342723,-0.008948217,2.4778228,0.53828263,1.3507369,0.095676884,-0.039997008,-0.28988346,-0.47292885,0.62337637,0.75414854,1.5088629,-0.78541386,1.2348533,-1.189496,1.1455692,-1.1531382,1.780486,-0.99971086,-1.5990531,-2.4687424,0.7054036,1.0028155,-0.0010476335,-0.04790821,-0.34348074,2.185725
business,1.0328196,0.57545996,-1.0783124,1.1913376,2.5784993,3.128669,0.9144014,1.6991289,0.8492357,-1.1931683,-0.18115042,-1.5869248,1.71921,0.50672495,-0.30389532,-0.70348775,-2.4588594,0.5445084,-3.3058262,-2.4647007,1.3177586,-1.746267,2.9630342,0.17939846,-1.5874774,1.7084839,1.3270406,0.8609081,0.91038424,1.1759263,0.20908624,1.0796442,-1.2634822,-0.74235666,3.6392226,0.16141187,-2.2132037,1.1202282,-1.2211019,-0.65154845,-0.64246315,-0.727363,-0.92174953,-0.8333513,0.49577147,-2.1810694,-2.9565647,0.47398546,-2.1202908,2.3617954
business,0.6502844,0.5320218,0.41316453,-1.7934139,1.1292505,2.1488268,0.66071105,0.5175676,0.47427008,0.3029361,0.42145538,0.2750434,-0.14898668,1.2112399,-1.4322588,2.5756254,-0.3019672,1.0818855,0.0367924,2.282376,-1.0961659,1.8629127,-0.45832357,-0.82720685,-2.4751506,-0.06204576,0.62776065,-0.038582113,1.49899,-0.6102262,0.63541657,-0.6322625,-0.13769853,-0.7301408,-1.0457997,-0.7400311,1.6474265,-1.8645084,0.40365452,1.0929749,-0.33094665,-1.5647596,-0.4432562,-2.1589494,0.7262203,-1.7767345,0.09878141,-0.3747537,0.43444353,0.8640475
business,-0.7099772,0.004977401,0.94146603,0.016938865,1.6810008,0.55829114,-0.80038816,-0.1297506,1.5857004,-0.7800953,-2.2362075,-1.840562,0.10943354,0.33770925,-0.94610965,1.800303,-0.36421072,2.3399045,-1.4290951,-1.464739,-0.2413086,-0.35590088,1.4297545,1.0707879,-1.1710985,-0.60393673,-0.4452635,1.1451834,1.1732928,0.47799385,-0.40977305,-0.51278615,-0.7243462,-0.21739477,3.553736,-1.4989508,1.7641766,0.782327,1.3843968,1.0174493,0.24477892,-0.92803854,-0.82648796,-1.8099443,0.44036582,0.53236794,0.8453461,0.8283477,-1.1986783,1.0993584
business,-0.021270476,1.0362544,0.84587586,1.0581897,1.2733946,1.7916902,-0.54569435,0.07797167,0.11712666,1.2063639,-1.1588203,-1.3964577,0.70306057,0.91029066,0.3520706,0.24666049,-0.5249541,-1.0971146,-1.0333434,-0.0915339,-1.2503029,1.0498251,0.38126984,0.5929669,-2.5401015,0.7265,-0.18499258,1.4745721,1.0862298,0.26678598,-1.8397516,-0.751781,-1.0397207,0.05273533,1.9067749,-0.5899403,0.7464808,-0.3911084,1.5593573,0.93166554,0.0831736,0.22495694,-0.9298533,-1.0655409,0.4055249,-0.5702397,-0.55991316,0.98992115,-0.87952346,0.16883485
business,-0.6729753,0.036080517,-0.562761,-0.39305812,1.3067626,0.9557685,0.8725883,-1.658511,0.8727886,1.6876469,-0.8546693,-2.2499664,-1.5276533,1.3359207,-0.1351213,2.5316303,-0.57387716,-0.008614374,-0.6066858,-0.603076,-0.5439435,-0.41766506,0.44157627,0.13955645,-1.701539,0.12662679,-0.72619146,1.1138766,1.0255343,-0.38255793,-0.8087795,-0.35758048,-1.2007055,-0.034827914,2.6800478,0.16055636,0.7614495,0.27411062,0.79950213,1.2662896,0.6165595,-1.1644965,-1.7307113,-2.2426682,-0.44420096,0.47431645,0.25687233,2.2838511,-0.622615,2.0286798
business,-0.73377025,2.2559195,-0.4770139,-1.6292303,1.3301061,-1.541063,-1.4574218,-0.5323462,-0.1945992,-1.0379008,-0.79941607,-1.7036799,-3.5491085,1.2353781,-0.20175095,2.2987778,-1.8606399,1.7165112,0.22995551,1.4964932,0.21022557,-1.2120322,-0.70617145,-1.938121,-0.03464243,1.1381738,2.7348533,0.6535042,2.898054,-0.33219028,-1.3458974,-0.16736786,0.35428244,0.021792391,-0.19428906,-0.3108436,-1.113126,-0.14234418,1.3863908,-0.033627793,1.877903,-2.4242382,-1.5940214,0.92571014,-0.10727598,-0.017001644,2.3907568,2.127677,1.1161917,0.60564524
business,1.5490974,0.45850554,-1.055874,-0.50194216,1.0021957,1.4941977,0.8820463,0.59588337,1.5576628,0.8258294,0.19694647,-1.6241766,-0.9390462,1.9859794,-0.14434716,0.16235468,1.3192992,0.3376341,-1.9792892,1.0551156,0.68183655,0.74525326,1.370848,0.5265814,-0.5330019,0.06572265,0.43306118,0.7097247,0.27268997,1.0040017,-1.1913301,0.1352792,-0.7718962,0.39010653,0.25017616,-0.5729667,-0.40430292,1.222487,0.795823,1.739191,2.0500784,-1.351336,-0.98840576,-2.012901,1.0610373,-1.4070522,1.8048111,0.90099114,0.01408943,1.8788326
business,0.20357212,-0.6631584,-1.3400596,-0.8642284,1.4418044,0.014628524,-0.65712047,0.9560884,0.90084136,1.0382158,-0.8876985,0.5826748,-0.8614146,0.92643917,-1.295066,1.735474,-1.148316,0.5817765,-1.0934305,0.48046005,-1.1607705,0.04934204,-0.8370261,0.34171832,-1.9739157,0.96370184,1.411078,0.7185248,2.1346102,-0.5415584,-0.8669031,-0.10593191,1.5095092,0.6047982,0.63853157,-1.4015883,1.5836958,-1.1442615,1.0843751,0.50649285,1.8733096,-1.7536654,-0.2118751,-0.82527804,0.8263017,1.1352873,0.32774404,0.76169634,-0.014147183,1.2322611
business,-0.48305067,-0.2507015,0.80438966,0.06297769,1.5559577,1.2682567,-0.15772054,-0.17817977,0.6703676,1.6182894,-0.10038949,-1.3444198,-1.0958672,2.0235336,0.99587905,1.9863731,0.5471759,0.12818623,-0.57074505,-0.2154059,-1.3226392,1.2422357,-0.060864873,-0.38022837,-1.8669163,-0.3825115,0.5536278,0.93224835,1.6584646,-0.32730255,-0.5704995,-0.8226928,-0.58628035,-0.45145684,2.1693113,-0.11213069,0.046856698,-0.7680907,1.091039,0.70445716,0.8401609,-1.4132557,-1.997876,-1.5145297,1.244883,0.099716775,0.9957926,0.9015418,-0.80051,1.5634525
business,0.0043340097,0.80496615,0.20429403,-2.1998677,2.3510978,-1.3203458,-0.47997582,-0.051935494,0.37203646,-1.4603733,0.18094079,0.036758795,-1.8366184,1.7086841,-1.9904867,2.1058683,-0.989273,0.13917801,-0.5079813,-0.13008976,0.81788695,-1.3892796,-1.8602399,-1.5208751,0.85687816,0.90259904,0.41160226,1.1053196,2.8635852,-0.87020195,-1.3970057,0.8687114,0.37891796,1.0228102,0.974126,-1.1984545,1.0192814,0.026582183,1.433173,0.10362041,1.0846997,-1.5003622,-1.1181741,-1.6505419,2.2339792,-0.18545349,1.4616265,1.9638381,0.7869309,1.6334754
business,0.8633521,-0.0362403,1.9682248,0.3861296,1.558672,1.2758952,-0.3834919,0.5651725,0.8497835,1.5498976,-0.7362061,-1.4721645,-1.3274968,3.0764093,0.46320483,1.7741877,-0.19055748,-1.233201,-0.85567486,-1.1122801,-0.52064747,0.06226226,-0.16381693,1.0041283,-2.1662893,0.53900254,-0.6293904,2.3882008,1.03226,-0.6582859,-2.1414623,-2.6087873,-1.2141905,1.9639761,3.4626088,-0.8260678,1.3719963,-1.4245409,2.4126554,1.5949699,2.0666256,0.09184321,-1.2307442,-0.18509385,0.34877458,0.023084292,-0.048099566,1.3530432,-0.056328796,0.37436712
business,0.022225168,-0.9065972,-0.12924732,0.14302434,0.8470265,1.7749155,1.371991,-0.14616963,0.018825151,2.1302876,0.23972206,-0.9017714,-0.9473687,0.27663505,-0.96065027,0.4747873,-1.3495808,0.8525644,-1.5293556,-0.8466309,-2.0524747,0.91562897,-0.7532338,-1.4572262,-1.0330366,-0.42435542,-0.70707405,1.0172542,1.9124539,1.0842417,-0.72391874,-1.7148213,-0.56515837,-0.23212798,1.9165611,-1.5184997,0.79596907,-0.1968185,2.2283156,1.131996,0.796432,-1.2563847,-2.1769187,-1.508513,0.78648955,0.81307864,-0.28018185,0.051498637,-1.1057595,1.7220211
business,0.1752063,0.23044224,-0.68516827,-1.2319481,2.048922,0.76990014,-0.8612864,-0.23806876,1.0677828,-0.79574704,-0.7412685,-0.8521402,-1.1535851,-0.73109263,-1.9873933,1.8768384,-1.1647512,1.4291024,-2.0593004,2.5452843,-1.6646018,-0.7145332,-0.018288476,0.5418525,-1.5616548,-0.062463332,0.6634689,-0.11783027,0.940525,0.0136480965,-0.38078532,-0.15722385,1.229865,1.1052363,1.0127672,-0.14230718,1.5467656,-1.9620997,1.4563178,-0.33644915,2.6249514,-1.070545,-3.3796813,-0.04287728,1.0547683,0.372648,-0.4023693,-0.09358627,0.20714258,2.5645907
business,1.2729616,0.104938366,0.047756657,-0.7088616,3.200298,0.83866227,-0.848585,-0.09506134,0.21796621,0.46928945,-1.8199301,-0.036753412,-0.3453323,1.5923761,-0.7401832,1.2164862,-0.48368955,-0.2279971,0.15225072,-1.2570952,0.3937651,0.23214848,0.13776684,-0.78371483,-0.6478006,1.9664538,1.6365714,0.7864493,0.7305735,-0.14347024,-0.08991833,-0.9672492,-0.10622432,1.0524013,1.5528499,-0.43542036,-0.005982468,0.85219014,1.5772433,-0.40644205,0.9040707,0.1294119,-0.71918947,-1.5614107,-0.72892314,-0.34057778,0.6274008,0.51407415,-0.3932878,1.511152
business,-0.112499885,1.035452,-0.83392835,-0.5458894,1.8852485,-0.101686195,0.92082185,0.6866479,-0.19744274,-0.37966815,-2.488596,-0.43692654,-1.1304322,-1.9719448,-0.30113396,2.2661736,-0.9263825,0.5189236,-1.4876179,0.34813344,-0.6237709,0.59369415,-0.49121612,0.36989692,-1.8453717,0.21963356,-0.6984857,-0.016800443,1.0744531,0.5015938,-1.185694,0.430113,0.6556746,-0.21221277,1.2809398,0.2549615,-0.11471522,-1.296704,2.4052553,1.1294438,1.6258582,-1.2516799,-2.041276,-1.0810891,0.6224233,0.76889396,0.7038632,-0.47102678,-0.544178,1.730874
business,-0.030660925,0.4424001,-0.050312728,-1.837782,0.8581344,1.1353246,-0.3788369,0.64891064,0.63990283,-0.010283594,-1.449743,0.07843608,-0.28178176,0.76549053,-0.11875434,1.487892,-0.31232563,-0.22147936,-0.36138606,0.5929439,-0.906159,1.3525229,-0.15281661,0.2198421,-0.66804636,0.6601543,-0.036023557,0.45195335,0.90637076,0.11057407,-0.8264883,-1.1767967,0.19749509,-0.046914186,0.81422454,-1.2355325,1.0795616,-0.14032696,1.5148013,1.9936016,1.8223362,-1.0013018,-1.0520924,-1.3172885,0.19921552,-0.37345615,0.69688946,-0.7504526,0.65635103,1.1987164
business,-1.3075213,2.3931553,-1.0676924,-0.19467244,1.1854917,0.75909096,-1.3319393,-0.42042992,1.6410489,0.42477062,0.7831565,-1.1371874,-0.614891,0.86132324,0.4407636,0.79743963,-2.810746,1.0953258,-0.2856189,-0.7814515,-0.24031374,-0.6737993,-0.07897374,-0.41767505,-1.4501388,1.1318685,0.37899676,1.0834771,2.3798532,0.5901481,-1.4420382,-0.6027139,0.91862476,-1.0836838,1.8013946,-0.4279288,-0.2965589,-0.66059554,0.62585354,0.0855808,2.1916888,-2.3939652,-0.18411638,-3.07157,1.5940737,0.43699545,1.5732454,0.4857621,0.3369848,1.4365516
business,-1.028499,-1.3122101,0.12418878,-2.825188,2.1939902,0.79863507,-2.0710623,1.4646512,-0.13688903,-1.568583,-0.3647476,0.64207613,-2.5491896,1.4823073,-1.2256103,1.8894895,-0.33112904,1.8262441,-2.8025925,0.4640331,0.27320477,-0.17602578,-0.66783273,-0.5476664,-0.89782053,0.09989625,0.83950245,-1.6147038,1.8196517,0.123096645,-0.9855281,1.3590084,0.593423,2.0107186,-0.34477887,-1.496779,0.8972338,0.34364533,-0.025266487,2.4927104,0.8230995,-0.8863914,-1.4806472,-0.09356131,-0.1723045,0.024590932,0.9946396,-0.0631741,-0.59596986,1.5282323
business,0.62782043,0.8852261,-1.0105382,-0.56714,2.2542593,1.3048269,-0.06107995,-0.22885284,-0.12802845,1.1526392,-0.6121314,-0.73989314,-1.9239923,-0.070898205,-0.7394493,0.9063206,-0.27084532,-1.3036214,-0.29527888,0.17495047,0.3325021,1.0055219,-0.21697403,0.23100999,-1.3048086,0.3148531,0.5318967,0.0065729287,0.3593559,-0.09065379,-0.36323643,-0.949111,0.2187404,-0.26110432,1.3184985,-0.77957684,0.811639,0.08830834,0.84662294,1.2712379,-0.18105339,-0.81647456,-1.6290952,-1.6299193,-0.07831168,0.45622388,0.32722965,-0.45439228,-0.04118466,0.92213863
business,-0.08822366,0.89090693,-0.5244251,-1.680942,0.9525107,0.4625724,0.2991075,-0.34760126,0.6754048,0.799159,-0.864698,-0.68186694,-0.6714352,0.6345251,-0.5856843,2.6353252,-0.79131037,-0.15072636,-1.7176403,0.8254587,-2.3688416,0.64177877,-0.44379565,-0.22266047,-0.7151544,0.43810666,1.036669,-0.7712399,1.1258174,-1.002583,-0.67761505,-0.26967278,1.8147016,0.3721447,0.6730804,-0.16644244,0.08857559,0.080232665,1.5349746,0.057716336,2.0897346,-1.2228334,-1.9213166,-2.32635,1.6931123,0.69690895,-0.8954245,0.68550116,0.20674989,2.5715187
business,-0.6922062,0.6261516,-0.937534,-0.09956149,1.006018,1.2440641,0.77307355,0.85756016,0.8705745,1.0531195,-0.010569443,-0.8532814,-1.1664182,-0.26789078,-0.68419707,2.5637147,-1.1653047,0.41811866,-1.0338355,0.6911909,-1.4939033,0.34491163,-0.029491052,-0.3626168,-1.0709351,-0.45734248,-0.46524322,0.572155,-0.29836428,0.23751605,-1.5743837,-0.7980019,0.99094105,-1.1213316,0.20574221,-1.5954753,0.51710683,-0.105474904,1.0809581,0.31487796,0.9037957,-1.3901672,-1.271679,-1.7241566,1.6534123,0.24695215,1.2496507,-2.0512292,0.27540398,0.41204655
business,0.15289524,-0.15644455,1.0494124,0.018277336,3.781832,0.31905964,0.061320033,-0.45043954,1.3257854,0.048858255,-1.6990652,-1.0622047,-1.0449402,1.5876324,0.31171724,1.9427679,-0.4246164,-0.22082114,0.6586874,-0.6859593,0.5449378,0.26803902,0.5256024,-0.35324013,-1.4286394,0.33983317,-0.05268909,2.6031604,1.7631148,0.008271872,-0.16769111,-2.3073366,-0.6681475,0.14138147,3.5657575,0.16275045,-0.2916199,0.215913,1.4776249,1.2085751,0.9634786,0.08162206,-0.3377607,-2.0921152,2.0982401,-0.760263,1.2330867,0.15618308,-0.94316936,1.338445
business,-0.5894396,-0.10979024,0.40757197,-0.63640136,2.1158657,0.8789941,-0.84643495,-0.6889326,0.76412547,1.796839,-1.4461786,-0.48666665,-0.8171892,1.3152994,-1.1480798,1.8793228,-1.3380055,-0.4083571,-0.9585504,0.7445675,-1.1343747,1.0006033,0.03814198,-0.05201565,-2.469856,0.09419389,0.85992235,0.6801833,1.2514199,-0.58106744,-0.24050161,-0.13107586,1.28604,-1.1464902,0.84039176,-1.1650693,0.9491735,-0.42734483,1.1001168,0.28490776,1.3453716,-1.5421671,-1.1476891,-0.8720898,-0.03456385,0.21105273,1.0193939,0.002960812,0.45337492,-0.44247952
business,-0.09619715,1.3193003,0.13154343,-0.851338,1.815558,0.34578452,-0.89893365,1.2503105,0.9499957,-0.8652803,-0.47683465,-1.0720917,0.14025202,1.611637,-1.3867207,1.6970944,-1.0675122,0.0367302,-0.5253423,-2.5463219,-0.21961954,0.45553517,-0.58890265,-0.46797168,0.20843384,0.29994965,1.8423303,-0.45615727,0.5580953,0.66914797,-0.45938838,0.87010294,-0.58079326,2.0487587,0.7572024,-0.36367193,0.5663167,0.18676588,1.38407,1.5244995,-0.8929005,-1.3847772,-0.13479072,-2.2007954,-0.50421053,0.48586437,0.8013997,-0.5955654,-0.62693334,0.090996645
business,0.8828388,-0.24142231,1.6655581,1.1116017,2.5709953,1.0020405,-1.024871,0.130704,0.9168703,1.6197339,-1.5310234,-1.5798584,-0.59969443,3.197673,-1.0491353,1.981038,-1.0070792,-0.3317478,-0.81914467,1.4032705,0.32575706,0.3246273,0.51732886,1.8361238,-2.6391196,1.7482103,-1.2989047,1.4437344,1.3884289,0.17101815,-2.2491536,-0.12323906,-0.016389575,0.08807266,3.5925758,-1.9505403,0.91073304,-0.44757286,2.0966315,0.7760889,1.2774109,0.17528903,-0.56433386,-0.8806526,-0.28013772,-0.088080816,-0.7087764,0.7558058,-2.1628025,1.4943949
business,-0.6839358,-0.23453827,1.3312483,-0.32202113,1.3512979,2.7180727,0.3305229,-1.3995205,-0.1750097,1.0793741,-1.6238744,-0.7820793,-1.8098152,2.4720466,-0.02989037,1.1467178,-0.86094385,-1.1578277,-1.0757504,0.6163335,-1.1103053,1.4244723,0.003890421,1.0151894,-2.1527967,-0.5629193,0.51350474,-0.021995757,1.4978282,0.27719256,-0.5582646,-0.89025646,-1.4112177,-0.31486088,1.3108414,-0.4014208,0.7219638,-0.007004992,1.5357939,1.9219447,1.9341445,-1.9507941,-2.0873501,-0.9376995,1.2181431,-0.79899406,0.92234975,1.65381,-0.48521543,1.1702584
business,0.72341895,-0.22418663,1.5079085,0.05500027,1.3688003,0.9491549,-0.52669376,-0.059231736,-0.6063936,0.8245475,-0.65326416,-1.7766873,0.37687778,2.8831625,-0.47438067,2.2137194,0.2689895,-0.078813046,-1.1521549,-0.10427909,-0.92210704,0.9949854,1.6808085,1.383858,-1.9944459,0.4251983,-0.18697815,2.356981,1.330279,0.58136207,-1.3783121,-0.8095802,-0.5748798,-1.5002708,2.0171645,-2.0640702,0.8252471,-0.26333028,1.7712488,1.818504,1.4685757,-0.57784617,-1.1773119,-0.92380106,0.21266437,-0.18464631,-0.64144254,0.6328287,-1.4405481,0.14607427
business,0.35252216,-0.41587797,-1.7273922,0.20345291,1.9832937,1.7813125,0.6082688,-0.3302282,0.1680898,0.4269645,-1.763047,-1.3509948,-1.9635215,-0.023904333,-1.0153246,1.141688,0.39684218,-1.0588472,0.63368344,1.8107799,-0.59427726,1.8146125,1.0388223,-1.0843606,-1.5715375,-0.5473581,0.7927628,1.8724047,2.1523685,0.020899594,-1.5330813,-1.0502397,0.68216735,-0.18176988,2.405489,0.124528885,0.57567143,-2.172273,0.2223672,-0.7646542,1.7851049,-1.912271,-2.2334862,-1.5323479,1.4814469,-0.3415852,1.2662709,-0.33846787,1.0785974,-0.5670875
business,-0.36264634,-0.33343554,0.5375517,-1.6649598,1.7666994,0.3498397,1.3143016,0.49745393,1.134452,0.1497094,-0.18079686,-0.38969824,-1.7587703,-1.035947,-0.41014495,2.546384,-0.9351325,0.08330191,-0.6757218,0.98934287,-2.0934274,-0.15856718,0.49035543,0.1365114,-1.046321,0.8108484,0.556075,-0.16252227,1.5127509,1.5317976,-0.936924,0.7651614,2.0291061,-2.1583898,0.69891804,0.12545408,-0.6051944,-1.7309921,1.2284782,-0.8906227,2.2863567,-1.2494303,-1.3267425,-0.6362747,0.77396655,-1.8848526,0.5715882,0.3282354,-0.68579865,0.76332784
business,0.45594722,-1.5436426,-2.8429034,1.6036756,0.9244823,4.5914526,-1.1773266,-0.12595443,-0.7597849,1.6929667,-1.5010822,-0.3692796,-2.5745678,0.025132429,-1.3361984,1.9560648,0.6917586,-2.2858176,-1.4357147,2.1121871,-0.6756418,2.3018587,-1.0911437,-0.72110415,-2.2822504,0.09158897,-3.2396834,2.320176,1.9638404,-0.03344988,-2.0090525,0.3048611,0.22871077,0.50730234,1.3494108,-0.2542831,2.0358603,0.14361879,1.1439927,1.2071087,1.3492944,0.004212358,-2.7229161,-0.117450245,-0.608627,-0.8607333,-1.1184708,-0.78017604,0.21153533,-0.29025662
business,-0.11689821,0.127088,-0.28695527,-0.6578576,1.4634007,2.05526,-0.34026605,-1.7514832,1.1766837,1.4243577,-1.9430199,-1.3289403,-2.168035,3.0197878,-0.30695316,1.9625685,-0.26562816,-0.20196591,-0.8883046,0.062901825,-0.84951127,2.5225348,0.79366934,0.5650576,-1.8107092,0.019673243,-0.06851053,0.9150037,0.5650474,-0.00013116484,-1.9733641,-1.0416398,-0.8158641,-0.09941139,1.8277551,-2.4305756,1.3328005,-1.4965075,1.4724365,1.6062487,1.5762731,-0.88398594,-1.4142199,-1.2341726,-0.697579,-1.2771493,0.33860523,-0.20352603,-0.9194313,1.8939111
business,0.42699605,0.095577255,-1.7693425,-0.9408257,1.8829427,1.7166371,0.35272527,-0.23116334,0.7916052,1.9068583,-1.0133337,-0.4685404,-2.0857818,-0.7534387,-1.1176026,2.19999,-0.58138907,-0.33914134,-0.44421786,2.712963,0.5778905,0.44255954,-0.18939854,-0.44175676,-0.7656586,0.32998657,0.47832844,0.5064519,0.6933972,1.011206,-0.73291874,-0.111051306,1.6389847,0.14229926,0.63311815,-0.62581795,2.0308485,-0.9688441,1.5605925,-0.63113797,1.7276756,-1.2530445,-2.226165,-1.0449593,1.8347006,-1.9099239,1.0537318,0.8269182,1.5233372,1.0366232
business,0.20862553,1.4926126,1.2489381,-0.08527107,2.0274203,0.58116376,0.36465624,-1.4450214,-0.47680867,0.25173992,-2.5119312,0.1787696,0.99330986,1.5936656,-1.6020374,1.4007678,-2.9751248,1.3165058,-1.9016398,-0.57608974,1.4477723,-0.6762056,0.5330494,0.23425159,-1.7184812,1.6782628,0.94966716,0.6906451,0.37644574,-0.40656146,-1.5752618,-1.0604522,0.102532595,-1.3562522,2.5817003,-0.8626639,-0.33420226,0.5571371,0.6960103,-0.30800563,-1.3022594,-0.7923294,-1.4573025,-1.2658633,1.6162338,0.07656804,0.63541627,1.9821086,-0.87630564,0.9406381
business,0.25981006,0.8921521,0.13213547,0.31043977,1.5922953,0.8889004,0.25462696,6.126132e-05,-0.61601025,1.4195148,-1.0689118,-1.6214659,-1.6217583,0.38643909,0.50841105,1.4839271,-0.6911391,-0.70698595,-0.8047327,-0.10919668,-2.3152559,1.009887,0.99243444,-0.041692007,-2.258907,0.956499,0.7512921,0.55865544,-0.100518286,0.69882303,-0.56371325,-0.62782186,-0.5459812,-1.5654391,1.1268005,-0.5514225,0.38261417,-1.605669,0.21863733,1.786558,0.8674222,-0.5895927,-1.0690961,-0.3637997,-0.34432128,-0.4443676,0.24258055,0.12838137,-0.5548692,0.3681834
business,0.95942336,-0.20012425,-1.4561188,0.3759587,2.0590568,1.1145333,0.21302623,1.4865654,-0.0025858902,2.1132803,-0.5707301,-0.32811165,-0.5654851,0.32244575,-1.0149913,2.6904674,-0.7551142,-0.1041235,-1.1265641,0.26542342,-0.563691,1.2733285,0.48821893,0.1901811,-2.2064896,0.6966743,0.4028268,0.2865611,-0.20859842,-1.6038419,0.37133205,-0.94463307,1.4284981,0.28453836,1.4946737,-0.8616511,1.0766366,0.66901386,1.4835361,-1.1541342,1.1693867,-0.53583366,-1.7099754,-1.9911134,0.24295792,0.32559836,-0.2508614,0.29878256,0.9209822,0.39309296
business,0.25753784,-1.2938396,1.6877586,0.0012331597,4.2226176,1.1851034,0.4811273,-1.1549197,0.324703,0.38669065,-1.3721064,-0.31460682,1.4352298,0.8294246,-0.89578974,1.4256134,-0.2634931,0.11462781,0.053129163,-0.1665758,-0.5508153,-0.22525522,0.39731866,-2.084623,-0.458754,0.5229088,0.9402887,2.8971446,0.90120625,-1.1842728,-0.14828289,-1.6874291,-0.33059865,0.47142938,2.6518393,-0.2312408,-0.04117714,-0.12025047,1.3865134,1.2338765,1.0781664,1.7380598,-0.70227015,-0.8934601,-0.88551533,0.4592701,1.2775984,-0.4583232,-1.1984427,2.078391
business,1.0160679,0.5579974,-0.46130994,-0.28780487,0.28936324,1.6046585,0.7103521,0.31989437,-0.6988578,2.2466059,-0.37179714,-1.6010777,-0.5521658,1.0930263,-1.2573582,1.5089481,-0.54790777,0.3768962,-1.1901858,1.9993594,-1.3805634,1.3281299,1.5774715,0.10638396,-2.583698,-0.07155757,-0.52282107,1.0399885,0.7366327,0.070967264,-1.045274,-1.0426112,0.7194317,0.39436585,0.3964936,-1.5049512,1.8553352,-1.6651926,0.34793764,-0.28267065,-0.11166859,-0.139438,-2.9339995,-1.327924,-1.3715652,-0.32067046,-0.5445917,0.49032214,-0.8745851,-0.82687414
business,1.5833813,0.21943033,3.4124496,1.825608,2.4493606,2.3951142,-0.91198605,1.1787087,0.2395168,1.8366154,-0.75761473,-0.44321463,-0.19398665,1.8817945,-0.74368316,-0.25084466,-0.22485,-0.87562525,-1.7673703,-1.8196205,0.4757584,-2.4297917,1.005916,0.6491938,-3.0490694,0.40689662,-0.10384649,0.9816867,2.7790835,0.2515736,-1.9607029,-0.04676314,-0.7736102,-0.10526157,0.40657187,0.3563579,0.51773274,-0.5394716,1.3034074,1.4900038,-0.21297163,0.58481854,-0.8156727,-2.3565466,1.2437835,-0.05849857,0.556992,1.2371725,-2.832675,0.7341561
business,-0.44375503,0.34761038,-0.8809122,-0.29365203,1.1836946,1.5462239,0.0869318,0.409242,-0.087152444,1.5745063,-0.25026897,-0.7398432,0.51069194,0.73906124,-0.21822253,1.1874877,-1.4573117,0.37114972,-0.1908352,1.0512302,-0.7248636,0.06970687,0.55979425,0.16816577,-1.696275,0.9820557,0.32798728,-0.27736625,1.3380966,-0.77927077,0.19151141,-0.25452816,1.5524834,0.11066585,0.36101195,-0.6625979,0.06736656,-0.34018666,1.9351058,-0.026880668,1.6464558,-0.7216732,-0.5421987,-1.1763071,-0.15687303,0.19110534,-0.29793388,1.1016873,0.011107569,0.33227387
business,0.5256085,0.0007127273,0.29763716,-1.2408211,1.8073002,0.8072381,-0.33736557,0.6672697,1.0374535,-0.7384144,-1.8887258,-0.7376538,-1.8948722,1.3063536,-0.27466986,-0.44104213,0.7356006,1.5670941,-0.95032394,0.35637298,-1.2381961,-1.9125423,0.5661866,-0.84345955,-0.066560656,0.4142186,3.114046,-0.5298174,2.7113826,-0.8529572,-0.8300987,1.4083096,2.3434389,-0.70498693,-0.069242045,-0.3098336,-0.19650939,0.52727264,0.5385538,1.0051724,0.9053269,-2.0141895,-0.30203944,1.4517287,1.5911416,-0.94202846,1.5250239,-1.0821037,-1.2815139,1.8731675
business,-1.7632706,0.27054426,-1.1278707,-1.4268876,0.6672109,0.40030244,-0.6755926,1.2432951,0.5306136,-1.2588158,-0.32892427,-0.9456441,-0.93436456,1.17097,-1.3598841,1.1999406,-1.2325531,-0.30672434,-1.1231034,0.31710944,-1.1869928,-0.8092801,0.49612513,-0.7213371,-0.54012287,1.6198813,0.45249414,0.56322855,1.7646052,-0.39263153,-0.5686279,0.37264335,1.9427001,-1.2717887,-0.05570685,-0.21587574,0.29560646,0.41493616,0.86943245,0.04589624,1.7684615,-1.0483764,-0.8787773,0.014568915,1.3683918,0.1384848,0.6755029,0.14326042,-1.1461754,0.33204737
business,-0.1819768,-0.7382515,0.11157697,0.33399904,1.1833338,0.26573625,0.122452006,0.52282774,0.98532516,1.8836824,-0.7399248,-0.77966624,0.3981694,1.1649292,-1.2528087,1.926814,-0.98454595,-0.123310864,-1.292545,-1.1925857,-1.2355325,-0.10568248,0.6754222,-0.11383648,-1.2067597,0.60455453,1.9100106,1.7376852,1.3408936,-0.36204332,-0.45916575,-0.68625987,-1.7949162,-0.6223715,1.9021951,-0.90345305,0.0403956,0.9555025,1.5816531,-0.59215015,1.2137927,0.109176934,-0.66633284,-0.50939435,-0.5065035,1.2992212,-0.3829871,0.6652705,-1.2422286,1.3425143
business,-0.31104246,0.48742297,-0.85004586,0.35771993,1.412003,0.80757844,-1.039416,1.0886655,1.4407663,0.60088176,-0.47444618,-0.61601216,-2.4338346,0.76584184,0.57107514,2.6269162,-1.456544,-0.5491868,-0.57103556,2.1127715,-0.93395305,0.63289064,0.48286954,-0.014429182,-1.0043972,-0.04164065,-0.4998494,1.2601153,0.8661944,1.5466247,-1.3806167,-1.7732557,-0.1289532,-0.05219903,0.16747609,-0.47876388,0.7990669,-1.045557,0.88753915,0.48716983,1.6216036,-1.180944,-1.014479,-0.4287144,1.7384171,-1.3235801,0.5998632,-0.5898862,-0.1714747,0.23265824
business,0.3409361,-0.33052468,-1.3655916,0.67283565,0.84735554,3.3279717,0.20074071,-0.05584126,0.8603494,1.6173661,-0.554915,-1.2367883,-0.7646973,1.6181009,-0.98559576,0.80069643,-1.4472512,-0.20825486,-0.28467524,0.6821718,-1.1589212,1.564738,1.7268744,-0.0676581,-0.9377657,0.87218267,-0.07463661,0.72324735,0.66513836,-0.8015526,-1.342284,1.2554454,-1.0729681,-1.2490723,1.0274246,-0.78175044,0.71329874,0.23843959,1.1989303,2.2670324,1.6217608,-0.06848912,-0.45963708,-1.7136829,-0.45392168,0.5499834,0.41932502,-0.8460627,-0.48780462,1.8895029
business,-0.3424671,-0.7176352,-1.0185754,-0.3006141,2.2715113,0.84424895,-0.5423138,-0.1702594,-0.37013447,-0.80125535,-0.22256915,-0.48041695,-0.8159233,0.73453164,-1.2204652,1.2125124,-0.95462525,0.09360153,0.47424573,0.6704346,-0.32256788,0.48944354,1.3388287,0.3642471,-0.88698447,0.18299612,0.8884237,0.52129245,1.2922446,1.4553889,-1.0059763,0.5823942,0.9956745,0.2604548,1.1295502,-0.10965411,-1.3152184,-0.93838125,0.28846478,0.08602015,0.9976108,-1.4876273,-1.8426971,-0.74344313,0.42823887,-0.584685,2.4869707,1.6403164,-2.0031798,0.36510465
business,-0.009858927,0.05529323,-0.69486016,-0.5066009,1.8577725,1.1772926,0.9017482,-0.072885536,0.02000998,-1.0811272,-0.711255,-1.9353944,-0.25078395,0.4792664,0.0353101,1.0152738,-2.0194087,2.604754,-0.21389554,1.0335609,-0.070047565,-0.61519194,-0.21367648,-0.88740635,-0.10480906,0.77878785,-0.14841133,2.514475,1.0526031,0.09727252,-1.772403,-0.3053119,0.4505283,-0.78769004,1.7529222,-0.10489332,-0.024282297,-0.9918237,0.61721474,-1.6003526,0.4145153,-0.6108986,-0.74812174,-1.720788,1.588582,0.5270335,1.6629727,2.188461,0.1022604,0.80299497
business,-0.37280616,-0.18486382,1.4551386,1.4263237,2.1459446,1.8515553,-1.829616,-0.09576396,0.82660806,0.7900408,-0.21842253,-0.69987833,-0.069928125,2.377574,-2.26729,0.55370414,-0.89971423,0.5207396,-1.1986783,-0.052020755,-0.54296213,0.8513714,1.4888753,0.9755313,-1.7659569,-0.3657725,-0.26807514,1.7048236,1.7526335,0.15612365,-2.7616982,0.0013417167,-0.71891826,-0.7199179,2.8678985,-0.26787415,1.0056435,-0.7468236,1.6370854,1.9549448,0.067826405,-0.1420896,-1.491122,-0.53090686,1.0063964,0.45522347,-0.06574242,0.79976636,-0.9739095,2.4250045
business,0.22698416,0.8461074,1.0489444,-0.20197648,2.450704,0.95416945,-0.093890764,1.3531227,1.710117,-0.44201913,-1.3170382,-0.14985456,1.4507382,1.4969165,-1.0584198,2.4427764,-0.8198571,2.0119183,-1.6965535,-1.639075,-1.0803204,-0.3341565,-0.067133814,-0.06275858,-0.614658,-0.67917913,0.23722115,0.04278744,-0.25979307,-1.982064,0.20280237,-0.6051164,-0.80526096,0.8605981,1.63192,-1.5543369,0.97421664,0.16305713,0.05329119,-0.5550942,0.7408792,-2.281618,0.4991649,-3.2066627,-0.0981878,-0.46141288,0.34932238,2.3279119,-0.6219367,1.7763804
business,0.8578142,1.186623,-1.3817065,-1.1132619,2.7246554,0.47903854,-0.68068916,1.259975,-1.4308743,0.48494074,-1.0601091,0.58199185,-0.3294192,2.1208153,0.24315317,1.4548167,-1.2260164,0.22788092,-2.321459,-0.48666814,1.4743961,-0.4238958,-1.3064895,-0.6835956,0.7238418,1.5088288,1.2083077,1.2823998,1.4487637,0.5257353,-1.0624133,-0.49318218,0.87543774,1.7382843,1.3169471,-1.3944288,1.0635661,-1.3787136,1.5044949,-0.8411693,0.2676524,-0.81508684,-0.745267,-4.145451,1.1516081,0.52077055,0.16303344,1.756085,0.5262625,1.9942323
business,0.36984056,1.1577876,-2.3918307,-0.14990246,2.9636772,1.0481142,1.0879986,-1.229748,-0.83809334,0.28124407,-0.2914945,0.007960482,-0.55535436,0.9785076,-1.249028,2.1059184,1.3559188,1.0311466,-1.0452106,2.3612714,-0.49952343,2.8259852,1.3126352,-0.4328694,-0.86124206,-0.6716289,0.27951008,1.4356823,2.0876524,1.1038378,-1.5510731,-2.3292916,1.1564826,0.9915029,1.5431985,-0.55088806,0.19152872,-2.0926445,-0.9711804,0.1362908,1.1723924,-2.6627479,-3.5619895,-2.043575,1.6049238,0.44166613,1.348667,0.24725695,0.5280428,-0.2057564
business,0.47965553,1.1470188,0.43158886,-0.3812944,2.2126055,1.7767972,-0.8635939,0.024635702,-0.58151156,0.42010838,-0.7577451,0.16677395,-0.13733968,-0.7445224,-0.07534223,0.14624059,-0.70476764,-0.27123457,-1.5321809,0.93346447,-0.75648916,0.36159524,-0.033281814,-0.6423613,-0.5799012,0.7380606,0.5486317,0.023020184,-0.5498609,-0.34819475,-0.609188,0.14743137,0.15790099,-0.38250405,0.7123345,-0.903928,1.1870652,-0.30066183,1.2630148,1.2471715,2.7478836,-1.629707,-1.656357,-1.2086201,1.4786744,0.45704514,-0.045019288,-0.20076093,-0.08979386,1.1447324
business,0.5998683,0.5322086,-0.5243379,-0.26262876,2.2053752,2.332218,0.36181256,0.5356518,-0.2434979,1.3848757,-0.1391203,-0.38675308,-0.59643334,1.0231402,0.10216341,1.9426447,2.1026464,0.2890219,-1.8561046,1.4191393,0.40388027,2.8922524,0.52396667,0.41113755,0.16047753,0.70652,0.38492972,-0.45580405,1.4104389,0.7214214,-0.9675333,-0.6177733,-0.31007114,1.6377554,1.9760221,-0.4399586,0.61069417,0.32919526,0.47257173,0.95660126,1.159165,-1.7102836,-2.7543733,-1.2801824,-1.118662,-0.91549265,-1.0403917,-0.5185221,0.1346895,1.1316115
business,0.6585244,0.010389557,1.1559137,-0.17422791,2.4676478,0.3517987,-0.21209374,-1.2236199,-0.14930533,-0.0034919933,-0.72233325,-0.29292497,-1.5824255,1.3802805,-0.32165316,1.9046097,-0.78099304,1.4284562,-1.6034555,0.49922344,-0.8758166,0.24071294,2.12872,-0.28854683,-1.7445321,0.97839326,1.5125464,1.779356,0.32596767,1.248003,-0.5671824,-0.31114808,-0.085846156,-0.7061801,2.7346606,-2.8594673,0.21069379,0.0513865,0.46626705,1.5014259,1.3200376,-0.1639382,-0.707695,-0.7261085,1.0623292,0.11912997,-0.8214943,0.2937993,-2.4814396,0.4398157
business,-0.1124146,0.07528453,1.2498201,0.95185053,1.523209,1.0151569,0.28578022,-0.16753201,1.2072663,0.40657425,-0.7816414,-0.43467897,-0.7594493,1.6120561,-0.9274763,1.338052,-1.0865484,0.96316546,-1.2697777,0.0016908471,-0.5654439,-0.18583766,0.78915703,0.69323695,-1.6434674,0.27868515,0.3438492,1.4248441,0.63735425,0.6043779,-1.1758538,-0.75669575,-0.36892685,-0.23916629,3.0964003,-1.1342236,0.6036885,-0.07179253,2.4095497,0.8214084,1.197264,-0.38577074,-1.7874985,-1.5314583,1.096666,-0.33753756,-0.4450601,1.3365912,-0.7685756,1.6809119
business,-0.8931678,-0.3340203,-1.6860983,-0.21606262,1.6676227,0.22903371,-1.7359575,0.693654,-0.14658895,-0.50196844,-1.3664424,-1.6617829,-1.6073463,-0.7273016,0.22057809,0.93474597,-0.35210052,0.300111,0.35876527,0.77917373,-0.25353,-0.4094328,-0.85352737,0.6222281,-0.5026602,0.97117865,-0.5491485,1.3077109,1.284327,0.8886459,-1.8104404,-0.4578072,0.78103435,-0.4090409,1.1486994,-0.33378887,1.336965,-0.18286166,1.5665917,-0.61402893,0.23051283,-1.7306798,-1.8156704,-1.74834,2.5695293,-0.09658843,-0.4844006,0.953493,-0.18439901,0.51028126
business,-0.16839863,-0.33639726,-0.47981203,-0.44518954,2.2584348,0.8755391,1.6258967,-0.06343382,0.54301494,-0.32162926,-1.3775817,-1.1914649,-0.047197215,0.82354516,-0.33176056,1.4946303,-2.2687721,1.3785354,-0.5116257,1.0691158,-0.41715217,-0.32028928,-0.8020751,-0.58715445,-0.328084,0.25395215,-1.1430854,2.0554936,1.0149219,0.9098102,-1.0207764,-0.93591374,0.3907649,-0.3582742,1.0270264,-0.60273576,-0.01648549,-0.8032796,0.57361317,-0.11435006,0.5513231,-0.327171,-0.461959,-2.1250377,2.3465276,-0.39675996,1.0817876,0.7216723,-0.45679858,0.9943984
business,0.009650096,-0.2329828,2.2714546,1.4808592,2.7709603,-0.13890669,0.23486769,0.31760335,0.86732167,1.5970573,-0.6910962,-2.1259031,1.4630278,1.5585308,0.1489851,1.2149887,-0.71375346,1.2541531,-1.0777487,-0.87084675,-2.2665367,-0.24086685,0.19313323,-0.81150806,-1.1584978,0.98375624,0.64665186,0.0016096344,0.86839575,0.37706566,-0.47586855,-0.9951857,-0.17673035,-0.5008402,2.7590666,-1.5345933,0.38540596,1.6203109,0.7316272,0.6076438,1.243306,0.23197553,-0.89451337,-1.9858234,-1.2373403,-0.24833803,0.30718037,1.107966,-0.8736866,1.6498947
business,-0.7567932,1.800307,-0.56054133,-2.1502037,2.7315276,-0.15238321,-0.461834,-0.89752233,-1.4354765,0.03284018,-3.9033015,-1.0578227,-4.5254974,0.33792594,-0.5386889,2.1943393,-0.66695464,-0.19180885,-0.79088616,1.4450635,-0.66033757,0.9010003,-2.0376716,-0.22775185,-0.5781659,1.2776401,1.6725256,0.45219368,2.1725302,0.42300957,-1.4546677,-0.28979528,0.74824464,1.9625473,1.2376249,-0.71818477,0.43586546,-1.2552601,0.7421221,-0.68765366,2.7574894,-2.056064,-2.0110407,0.17073308,-0.96908617,-1.2053213,1.6209334,1.7115937,0.9502533,1.987325
business,0.11656906,0.66546017,-0.21423891,-0.8435565,1.44509,1.9276848,1.1064813,-0.918627,-0.2775601,0.24472187,-0.34486488,0.63546187,-2.8527174,-0.9205512,-1.1879596,1.4524668,-0.7801765,-1.2764332,-1.9348776,1.8752332,-0.37231827,-0.65015686,0.46634635,-0.7559821,-0.6523645,1.3512583,0.5303847,0.12740348,-0.51508856,1.033296,-0.7063462,-1.0311553,0.7847424,-0.82028747,1.2024777,-0.39553496,1.5072322,-1.2521715,1.5147506,-1.0145838,2.5341454,-2.109583,-1.8884466,-0.6291363,0.99731666,-1.3794956,1.117893,-1.3079311,1.4293796,1.041949
business,0.94385886,-0.6632548,-0.9541437,-2.1911428,0.4821575,0.8563758,-0.77324295,0.7053079,3.1815886,-0.47825253,0.12761246,-0.8204791,-1.7082285,-0.34347114,0.31159025,0.56939226,-1.4496515,0.8199316,-2.1346734,-1.4251655,-1.3635093,0.43788126,-0.2107732,0.3083018,0.5883496,1.0820717,2.2079537,0.30065817,3.184315,0.13324994,-0.013047605,1.0088176,0.72296494,-0.90771824,1.0019798,-1.753497,-1.746592,1.9770604,0.13725218,0.09112458,1.175579,-1.7791656,-0.46886975,-1.4391657,-0.61219716,-0.9315884,-0.6650776,-0.6006076,-1.4143126,0.28082618
business,-0.18842842,1.1916511,0.130748,-0.1280616,1.5130223,-0.73983455,1.4237047,1.0675083,0.70670366,0.38326934,-1.548444,-1.2568604,-1.9435962,-0.0594231,-1.0968902,2.2230277,1.1201142,0.16851276,-0.7287976,0.28365588,-0.7652713,1.811132,-0.8072162,-0.7025525,-0.27815267,0.50435275,1.5211091,-1.0015036,0.9774723,-0.38972077,-0.5063139,-2.031778,0.80068046,1.5596522,0.77904034,-1.4382845,-0.02896049,0.1885774,1.407573,-0.1671758,3.135925,-1.8285538,-2.9999857,-1.2616456,2.5891895,-0.28941625,0.2186313,1.3089666,0.1482491,1.8549769
business,0.4071957,-0.99719936,-1.4156457,0.43999997,2.189801,2.290245,0.314442,0.20000276,0.14739685,0.11588765,-1.3242278,-1.6421776,-1.6251782,0.36809295,-0.29136512,1.2714158,0.14959575,-1.5014894,-1.6032665,2.2351048,-1.2471741,1.8000499,1.4282974,-0.20487812,-0.5320892,0.10268625,-1.6631707,1.8509402,0.9044495,-0.4570099,-0.1519851,0.60987437,0.6421211,0.1260882,0.7107329,-0.11125108,0.9084645,0.06742225,1.340744,-0.036975887,2.969327,-0.64724505,-0.7479054,0.17137648,0.8884323,-1.5387125,0.6457063,0.4365092,-0.07963968,1.5348198
business,1.0767184,0.63645685,-0.51286966,-0.7331454,2.156287,1.151668,0.4007538,0.05789377,0.22772844,0.08596157,-1.2035165,0.096008755,-0.4644386,0.47194523,0.21687494,1.2411025,-1.0109053,0.86588156,-1.0371447,1.206473,-0.41547063,0.5522209,-0.10661465,0.078503475,-0.96853167,0.9376623,1.327922,-0.2506058,-0.07367304,-0.39389932,-0.012628526,0.6517557,0.50957507,-0.09897168,-0.00017091089,-0.35428578,0.42433214,0.035786625,0.23309727,0.39776897,2.2092235,-1.3422933,-2.075525,-0.46024778,0.34357795,-0.28636903,-0.3735986,-0.65583265,-0.37430635,1.0242302
business,-1.3344177,0.5312153,-0.73791444,-1.8081617,0.798761,0.4733676,-1.5195713,-1.6571733,-0.70408064,-1.4875233,-1.6421505,-2.2181358,-4.9797864,0.57566094,-0.9889485,2.543667,-1.0479388,1.2434406,0.8892163,1.1189405,-0.27215087,-1.3153483,-1.6336048,-0.15698092,-1.5788742,0.55106306,2.3667858,0.15312481,2.9166398,-0.85754657,-1.5105097,0.5181574,1.2603035,0.12507369,0.33115432,0.8474013,-0.59641474,-1.650229,2.0069427,-0.13670243,3.3587842,-1.8889747,-2.2036088,1.4531779,1.1312749,-0.8044949,1.3700261,1.3328394,1.9404746,0.32401395
business,-0.13034248,-0.25080878,-0.1990576,-1.7283427,1.9803127,0.5989502,-0.028892228,-0.78179187,1.31635,0.46968383,0.2040699,-1.2872479,-0.24635915,0.97777754,-0.203556,2.2356005,-0.8792731,-0.7817817,-1.6013145,-1.1157426,-1.2794644,-0.67290574,0.4130246,0.051321343,-0.33169046,1.2155954,0.5786681,0.03400676,0.016704619,-0.51275814,0.32228515,-0.30270308,0.23193823,0.91938263,1.9382879,-1.5136558,0.5427132,0.08342594,1.4982474,-0.4989297,1.573722,-1.2154205,-1.3389989,-1.5517118,-0.89786774,0.10029051,-0.8112142,2.1811576,-1.0614511,1.8872474
business,-0.27979732,-0.7672434,-0.5333343,0.006968302,2.470543,1.5096617,0.17512149,0.7669975,0.38397744,1.4605694,-0.4469598,-0.77569175,-1.5987365,1.5861232,-0.47209027,0.88738203,-1.0997348,-0.009572265,-1.3248525,-0.3003608,-0.99155647,0.91287994,0.1266714,0.06944372,-0.7438063,0.42926198,0.11747492,1.696362,1.7206826,0.64060766,-1.449457,0.2583549,-1.2118478,-1.6501123,1.5308553,-0.6883225,0.0715571,0.691618,2.3238914,0.69521326,0.57632303,-0.3233771,-0.38081047,-1.0337477,1.5972401,1.091122,0.20961493,-0.3716426,-1.2104306,1.7782696
business,-0.31432387,-0.8011666,0.4304282,0.6448787,1.0828966,1.4997122,-1.1233939,0.39025813,0.88849646,1.1856412,-0.19243771,-0.41883618,-0.6586295,1.8334752,-1.2367195,1.629205,-0.5114416,-0.90097314,-1.0356203,-0.81461,-0.34170058,-0.3584166,0.36894396,0.83805394,-2.1279001,0.31076393,0.0014336158,1.3315008,2.449479,0.05101027,-0.77209836,-0.011336651,0.055949643,-0.26120117,1.1975079,-1.1459366,0.6226196,1.0334642,2.2814045,1.0407853,1.1315063,-0.2439896,-1.0521014,-0.97384334,0.4712938,1.2611306,-0.111186475,-0.27415177,-1.0666105,0.90143806
business,-0.15742826,-0.7646424,-1.09364,-3.3977623,1.7680707,0.97066134,-0.6185863,1.3595389,0.73155695,-1.0896535,-2.3109176,-0.7115232,-2.8355942,0.73265696,-0.5523177,0.04748347,-0.09626978,1.4293972,-0.47090456,0.45901832,0.21906793,-2.2664063,1.185509,-1.7630265,-0.043456506,0.9001387,2.7337122,-0.03960397,1.4228232,1.3129926,-0.8036894,1.5645089,1.4691556,-0.86500615,1.2016964,1.1085325,-0.7709573,0.89286685,1.4425007,0.028158333,2.5717905,-0.5586537,0.034738403,1.6017144,1.0339988,-0.48924357,0.6668507,-1.9764903,-0.8372951,1.4195837
business,0.45787135,0.3877906,-1.3416156,0.115758084,1.3452967,0.876848,0.3902684,-1.1509658,0.40689415,0.60669595,-1.3010046,0.3304665,-1.6080939,-0.11678184,-1.0231577,1.4825882,0.19849797,-0.25597122,-0.92792416,1.1159576,-0.3650282,0.06259228,0.9084913,-0.9272268,-1.7661066,1.0010952,0.9613953,0.20018801,1.571381,-0.65552837,-0.40627715,-0.30475444,0.7609809,0.11570937,0.14849901,-0.82071304,1.0942008,-0.09336938,1.1942357,-0.2591269,1.7592871,-1.8914963,-2.462878,-1.4382945,-0.07655744,-0.55577606,0.4927162,0.6703143,-1.1661079,1.8881145
business,-1.2087084,0.83574903,0.47760358,0.43041116,1.2711128,1.3703293,0.12423498,-0.38845924,0.3425997,0.82538694,-1.1570467,-1.385252,-0.3957842,2.267478,-0.21693945,1.6562816,-2.839612,0.2911719,-0.8629728,-1.1754986,0.59123254,-0.96708745,-0.20375368,1.1628764,-1.2087358,0.33727333,1.1442499,0.45712566,2.572739,-0.26067552,-0.9472332,-1.2453499,-0.70385766,-1.8040314,2.382755,-0.6352623,-0.6319759,-0.16209559,1.2825438,2.057018,0.7675895,-0.20512126,-0.3334158,-1.0757302,0.42190933,3.1859493,-0.26732898,1.7163792,-0.11287491,0.02561269
business,-1.3382932,2.4089909,-0.6603064,-0.46920732,1.4763223,0.58848286,0.43790218,-1.3753444,0.35013336,1.6394092,-1.2349983,-0.3742427,0.08435899,0.9222834,0.6458055,1.7048286,-2.839757,0.695878,-0.6721816,0.2454569,-0.7432333,2.904612,0.116154864,-0.24091764,0.066374235,1.9704962,0.9466986,0.899585,0.26896977,0.6570242,-1.7604982,-0.41909292,0.19408755,1.2684453,2.069664,-0.7031494,0.88593143,-0.47618547,0.20454551,-1.1846229,1.5554593,-1.7613189,-1.435117,-2.569708,1.1467222,-0.4795812,0.031281818,1.3271991,-0.076047175,0.43154222
business,-1.7037175,0.51499605,0.92949355,-1.7966961,2.7300863,0.000640588,-0.54208165,-2.1428487,-1.0523958,-0.2392576,-1.7649162,-0.7809234,-3.6366317,1.5824006,-0.63750124,2.046299,-1.1923536,1.4500697,-1.1254859,0.6050883,1.4268446,-0.89729506,-1.4778763,-1.7809536,-0.18155628,1.3380584,0.6581291,-0.1654127,1.6741787,-0.063669376,-0.707909,-1.4282765,0.75363046,1.8510085,1.6320572,-1.6039237,0.36270607,-0.55439585,1.1017399,-0.16443741,1.826672,-1.0877595,-2.262387,-0.47315812,-0.83218527,-1.468947,0.48511884,0.5925448,-0.73592013,0.64338034
business,-0.26343542,-0.82731146,-0.46197972,-0.19169527,1.2272838,0.50030875,-1.7137716,1.4240532,0.61230326,-0.587565,-0.40246126,-0.5798959,-1.1342063,0.23599921,-0.47482026,0.72078484,-0.51866007,1.8597014,-1.0553782,0.9284018,0.03619764,-1.2344155,-1.2740018,-0.25129035,-0.33027288,0.9908602,-0.22771281,1.0517249,2.6445284,-0.04408099,-1.2391825,-0.60984737,1.5682573,-0.26399276,1.049559,-0.52337724,0.34964558,-1.6280154,-0.41167676,-0.38992566,1.0666829,-2.0981932,-1.5532079,-2.3626099,3.5485735,-0.058601085,-0.35943332,1.1813384,-0.11422134,0.36282995
business,-0.18370153,-0.31365824,-0.88018274,0.07989456,1.3162829,-0.07094152,1.0230552,-1.0514153,0.50818396,0.4246406,-1.2147164,-0.5784244,-0.63682306,-0.6421048,-0.45305848,2.9030697,-1.7899138,0.28389478,-1.6122048,0.24595378,-0.81159896,-1.0631008,0.10659564,0.9822063,-0.08547572,1.6906639,0.07833836,1.1731693,0.024447855,0.038034916,-1.6602695,-1.383701,-0.06705376,0.17010014,1.2257041,-0.7415337,0.46708342,-1.328394,2.0409834,-1.412768,2.8978107,-1.1375327,-1.8430878,-0.044200152,0.37484202,0.3937053,-0.615779,0.27887744,-0.68112075,1.3214734
business,1.0637542,0.010972936,0.21823242,0.66618603,1.22009,1.1071496,-0.045916196,0.6130315,1.2522765,0.41053846,-1.1125509,-0.7232286,0.28862816,0.9851182,-0.77087903,1.6510452,-0.8617512,-0.9237097,-0.37522447,0.43609884,-1.388828,0.18090463,1.2246199,0.41729528,-1.7385377,1.0690657,0.931875,1.12446,0.75179625,-0.26460087,-1.3288379,-0.6656006,-0.64643615,-0.6214379,1.8464984,-0.47136968,0.20111358,0.07580605,1.8022524,0.5161305,0.42745832,0.28104398,-1.5831058,-1.8464091,-0.37692422,-0.61817765,-0.14936858,0.7176449,-0.8074861,0.5435293
business,-1.1862241,-0.013658742,-0.09350998,-1.4528599,1.0842351,1.662646,-1.0762221,-0.047422085,0.22729345,1.3650571,-1.0290778,-0.5766908,-1.1330489,2.4541364,0.22887284,0.9749917,0.19699237,0.20167838,-1.8719268,1.6436303,0.40677637,1.9985455,1.2210405,0.67992854,-1.2035688,0.27138716,0.81370807,0.32882285,2.335614,-0.29463398,-0.05906029,-1.4506437,1.2785008,-0.2275853,0.0852215,-0.36729386,0.95322335,0.26985875,0.71404725,0.25503233,1.8135678,-0.22836553,-0.6838793,-1.8028637,-0.28439718,-1.3908142,0.0793401,-1.6146148,0.76823634,0.9733575
business,-0.8867438,1.3779972,-0.19345692,-0.28293282,1.8057815,0.26607782,0.886713,0.48617938,0.2134229,-0.32954234,-1.0491122,-0.6693282,-1.6974697,0.38820413,-0.9841845,1.1725571,0.12534484,0.085253194,-0.7630098,-0.07641864,-1.0167983,1.3523508,0.4642815,-1.0381324,-0.7454001,0.06659971,1.4521114,-0.2629702,0.9667137,-0.9039128,-1.1406113,-0.74224854,0.9543021,0.62736654,0.3866061,-1.1850426,0.9571502,-0.26703513,0.3108338,-1.1899267,1.4282914,-1.3749825,-2.295188,-0.87522733,0.6917675,-0.45264867,0.72352546,0.24646494,0.027319212,1.4168319
business,-1.613643,-1.2124003,0.3999326,0.62346464,2.1295505,1.4922271,-0.7855458,-1.0495379,0.58659667,0.7000314,-0.6236063,-2.324427,0.22192399,1.7046049,-0.81585306,1.5350225,-3.0092862,1.7155254,-0.19824319,-0.23250821,0.55716074,0.33767888,0.16759206,1.978506,-1.4274704,0.56124276,0.9799551,1.7784194,1.3167818,0.35112128,-0.9869442,-1.4373602,-0.78088266,-0.99705184,2.2644043,1.105037,-0.39621067,-0.09169945,0.97679955,1.5216892,-0.36716813,-1.0503852,-1.521303,-0.7139533,1.106055,1.2032596,-0.1671117,2.5313222,-0.11528266,1.5739865
business,0.46067527,0.3731042,0.4785912,0.71453255,1.8305974,0.49393746,-0.71375835,0.74556494,0.67453676,0.6240201,-0.6727565,-0.09829687,0.03839768,1.6472704,0.26765,2.364378,-0.53372794,0.84893227,0.41618156,0.019499466,-0.88820314,-0.44313762,0.17578952,0.35888484,-1.2952935,-0.12666382,0.7602107,1.7844955,1.475312,0.2403318,-1.737786,-1.98799,-0.33700603,0.44393945,1.7877063,-1.525623,1.8348216,-1.1275297,2.0589683,0.64962626,0.71675,-0.5369523,-1.1309196,-0.8416512,0.458073,0.9233039,0.021079967,0.7091976,-0.3618342,0.0003700765
business,0.26333642,1.2210828,-1.38644,-0.85771024,0.92862016,2.6187096,0.4590886,-1.4968423,0.0067059556,2.86341,-0.4173659,-1.4956775,-1.6065034,2.0949254,-0.75122243,2.1782055,-0.636612,0.15371975,-1.6763289,3.4106936,-1.8683288,2.8392677,-0.074897274,-0.38658062,-0.941042,0.01934875,-0.074672565,0.79923296,0.466542,-0.33606172,-0.9766656,-1.3565136,-0.5305042,0.45360205,3.1475644,-2.0666957,1.0962616,-0.8982493,0.46522737,0.5510399,1.4717646,-0.5038516,-1.7496883,-2.0928926,0.08919143,0.74824226,1.9925344,0.5172265,1.4351354,2.150265
business,-0.8898021,-0.74812275,0.5356767,-2.014874,1.3975044,-0.26114655,-1.1316969,1.7534873,0.8048524,-1.708975,-1.7135416,-1.0873151,-2.7208931,-0.51464677,-0.7299558,0.8109904,-1.0282522,2.2639952,-0.24573883,0.7901896,-0.6065131,-1.8601365,0.35753065,-0.5912169,-0.55235595,2.1482015,2.8965545,0.54347396,2.4029288,0.28321975,-1.2120664,1.7171179,0.24666113,-1.1682619,0.40643698,0.14970076,-0.2596124,0.2690107,0.74145454,1.3659165,2.1360624,-0.5468911,0.24001774,2.861988,0.089711495,-0.91268295,0.8407973,-1.7384973,-1.4568825,-0.4495624
business,-0.06614035,-0.33421102,0.3200167,1.3061999,1.7686297,0.67333794,-1.002906,-0.13340881,0.8111959,1.6491463,-1.6826342,-1.7309222,-1.0982244,1.1861919,-1.6494701,0.93708456,-0.4492218,1.0235423,-1.260134,0.4672375,-0.7299739,0.12735847,0.639009,0.562293,-2.0470011,0.89758027,-0.038510997,1.2720802,0.5114111,0.7692151,-1.9963452,-0.17317532,0.14009215,-1.3143082,2.4579065,-0.6708081,-0.732464,-0.5353472,1.3244339,2.0808525,1.4094093,0.67670953,-1.6972563,-0.4908984,-0.23604801,0.43557784,-0.0037792267,0.5054043,-0.9261891,1.3761698
business,-1.0769004,0.86142546,-0.43631753,-1.921451,0.75182754,-0.038990464,-0.028050585,-0.2191473,0.32308695,-0.7544162,-0.6843523,-1.8418326,-1.2958307,0.8122245,0.42355672,-0.034101687,-1.8940881,0.91996217,0.3134406,-0.060115855,-0.31688517,-0.8168276,-0.24218477,-1.3908815,0.12566712,1.8596568,2.0583658,0.11201689,1.6093384,-0.33143014,-0.5317165,0.78445256,1.1543826,0.46173182,-0.41701892,0.4344709,-1.082664,0.7768665,1.8833832,0.32741845,1.8504014,-1.6577141,-1.4871583,-0.54438806,1.3228234,-0.49450567,2.31194,0.8833804,-0.068782955,1.106424
business,0.122636095,0.056857742,-0.8581643,-2.455392,3.215446,0.52860296,-0.99165154,-0.8303418,1.6891448,0.33990827,-2.3376772,-1.528615,-2.8780031,-0.51655734,0.6415397,2.0016308,-1.8480182,-0.20703456,-0.9641132,0.48560718,-2.990334,0.27006772,1.5975273,-1.4572322,-1.9520974,0.31693962,0.6334329,1.5066856,0.63897634,1.6538955,-0.64514107,-0.67805,2.160924,-2.4164855,1.59883,-0.6308551,0.13014087,0.026374735,1.7084072,1.0206249,2.027261,-1.567931,-1.2907503,-1.6472715,1.029056,-0.041789938,2.9397106,-0.51452714,0.885085,1.6350565
business,-1.7712431,2.0677626,0.5651725,-1.6771027,0.5385919,-0.41843706,-0.48773503,0.14077121,0.88277674,-0.7135833,-1.2850454,-1.6517655,-1.7448215,0.20848647,-0.5247546,0.42445824,-2.0337322,1.1873616,-0.5005843,-0.6186752,-0.7323287,-0.15506142,0.042414155,-0.92504936,0.97804683,1.3508363,1.2429006,0.49721974,2.611108,-0.2514215,-2.305448,0.7991119,2.461861,-2.7608922,-0.6205383,-0.67639315,-0.9993357,-0.71892375,1.2821529,-0.17047735,1.993873,-1.6048889,0.36181787,-1.2090591,0.9367049,-1.3191792,2.2991095,0.63122064,-0.77722365,1.0990189
business,0.40415135,-1.7600263,-1.3674598,0.7540798,2.2337506,2.6480772,-1.1975852,0.51441985,0.85500985,2.3260682,-0.4688846,-0.43983993,0.21634226,0.42001182,-0.28666925,0.7044454,0.94794214,-0.8420713,-0.6062447,2.154656,-1.4825443,1.9528378,1.3958395,-0.24705239,-0.39305183,0.6719588,0.394847,0.0983142,-0.19303189,-0.9910157,-0.38348898,0.23737743,0.29870358,-0.084163435,0.5503928,0.87997305,1.9801929,0.09864882,2.059244,-0.09091235,1.5783637,0.41879213,-1.8835708,-1.4047562,0.07361348,0.13154845,0.8496663,-1.124534,0.6454442,0.071511164
business,0.9418355,-0.22484097,1.8458229,-0.4032975,2.7195253,-0.41839322,-0.6280888,1.0216869,-0.2500023,-0.09314034,-1.1750598,-0.6952917,0.33117512,0.19259971,-1.0229229,1.82699,-1.7344941,1.5686545,-0.1438794,1.1081386,-0.0011813529,-0.5884437,-0.30919042,-0.38302937,-0.32913598,1.271033,0.57916707,1.7109445,0.36960125,2.3765955,-1.8142028,-1.0660341,0.3031118,-0.3889154,0.2554326,-0.63556993,0.67069644,0.0065037217,3.1178277,2.4320214,0.51428324,0.8730031,-2.3406217,-0.3207414,0.33874485,-0.044808965,0.87579226,-0.55502033,-0.32513064,0.097087875
business,-0.75381184,1.7304808,2.8916912,0.7409889,2.6782904,-0.15266128,0.120773815,0.40105137,0.9713477,0.32668018,-1.4745582,-1.5193994,-0.1190167,0.77015656,-0.058715083,2.7339313,-0.13982259,0.792052,-0.24774931,-0.33297342,-0.70851326,-0.6757198,0.90656173,0.09582573,-0.42344135,0.39791363,-0.40197158,0.6334561,0.046384424,0.33842468,-2.0875702,-1.8188478,0.35561618,0.32783177,2.649713,-1.8067018,0.14541048,-0.3291312,1.3202944,-0.5700893,1.454481,-0.6376625,-1.2833639,-2.2803745,0.8308569,-0.95080936,0.83299613,1.1665506,-0.86633617,1.8894037
business,0.76600736,0.69713473,1.1201274,-0.02288292,1.0833777,1.043722,-0.5587089,1.5007901,1.1377292,0.47569612,-1.243665,-0.684625,-0.75057954,1.6586018,-0.9180881,0.9926858,-0.39735478,0.40631986,-0.9108238,0.09224829,-1.6410668,1.4423745,1.6404313,1.0754755,-1.2479867,-0.17127633,-0.50157905,0.13170302,0.5652964,0.21549524,-0.4960282,0.8815679,-0.7425538,-0.33665457,1.2589709,-1.1926379,0.34772196,0.34165436,2.0792155,1.2080085,1.0955762,-0.34550986,-1.4942039,-2.5896566,0.7009283,0.09902343,0.33751038,0.056104496,-0.90058094,1.272324
business,-0.027780576,0.9417346,-0.4197608,-0.76142335,0.22349837,1.1982591,-0.1838131,-0.32583064,1.5152135,-0.0948093,-0.34274372,-0.71570927,-1.2726485,0.3254142,-0.5341471,1.826909,-0.85625124,-0.03772577,-0.66542566,1.3322778,-1.0354924,0.07449183,0.8246635,0.35359162,-0.8264672,0.40784356,0.53222424,0.70221806,1.60892,0.34728193,-1.0657884,-0.6866415,0.13465506,-0.67250973,1.2110465,-1.0566994,0.32647508,-0.3856908,0.038521383,0.7578738,1.0678891,-0.7801655,-1.0251987,-0.30418587,0.1822768,-0.014018837,1.4878215,0.41602376,-1.0067936,0.8609508
business,-0.047946293,0.49556044,1.9256097,0.95370674,1.7347828,1.5033399,-0.08547432,-0.40675694,0.0014202901,1.8450501,-1.3055589,-1.9323612,-1.7819616,1.3266045,-0.5948709,1.9512761,0.08302709,-0.37903067,-2.080126,0.010213293,0.7050699,1.258906,0.54191095,0.7970442,-2.584872,0.3559804,-0.067875415,0.40712348,1.722476,0.40315798,-1.3312212,-0.1576646,-0.9582487,0.44300658,2.7893937,-0.9832955,0.93346345,0.033271078,1.688264,1.195517,1.10736,-0.045001756,-2.287629,-0.32434568,-0.020721812,-0.4590746,-0.49917853,1.166788,-1.2521249,-0.009965832
business,-0.8166837,-0.14554651,-0.06824152,0.68863624,3.939835,2.2052805,-0.10904361,-1.197414,1.2746933,2.675595,-1.6789583,-0.21791933,-1.3294562,1.1091387,0.45650032,1.7055699,-1.504852,0.86989564,-0.41213486,2.0590699,-1.1127905,1.5793678,0.49937633,0.24237417,-2.474698,0.112150915,-0.8474769,1.53864,0.40978596,-0.87664944,-1.9342663,-1.3915329,1.3908471,-0.6138971,0.79561883,-1.4113573,1.2554003,-1.7412072,2.252343,0.94745713,0.7005096,-2.7119102,-0.9373065,-0.9373749,0.8171165,-1.2648929,2.6384892,-1.0511967,1.7753127,1.0271021
business,1.3863046,1.5316623,-1.0864896,-0.6404511,1.4684095,0.70835716,1.2783583,-0.4150671,0.52534455,1.9383987,-1.0260663,-0.72934246,-1.7523974,0.19163138,-0.20962298,1.9080983,-1.3703727,0.5211852,-1.4884056,1.6395457,-1.0883524,1.6463158,-0.09211325,-1.8155931,-1.8305826,0.39445445,1.3222271,0.53255546,0.54021454,-0.47313374,0.16472888,-1.5701011,0.8957863,-0.49285302,1.0828985,-1.2995517,1.0918432,-0.31834653,0.606283,0.31126794,1.5792929,-0.8226536,-1.9643961,-2.8217542,0.9986599,0.46038094,-1.4391472,0.12029821,0.17355885,1.6660804
business,0.086874455,0.86947596,-2.2167482,-0.69171596,1.7852083,1.6305307,-2.2546942,0.29295626,0.2369862,-1.1392717,1.8440088,-0.84841764,-0.7221553,1.6585479,-1.1305692,0.10601455,-2.4397519,0.68046635,-0.7293153,-0.2764303,-0.4599556,-0.74532115,-0.8245727,2.1456423,-1.0848981,0.7373721,1.8344145,2.2083485,3.6805763,0.46878543,-0.8261066,-0.22003685,1.2857326,-1.7897092,0.3010798,0.15585968,-2.4438763,-0.6898583,0.40502182,0.10854252,-0.968217,-0.99110156,-1.2548825,-3.068028,2.1472695,2.1859605,-0.3812394,1.0590899,-0.8158283,1.8138993
business,-1.4742163,0.1590356,-0.038467303,-2.128751,1.1636964,1.3284345,0.02884912,1.3252773,-0.20252386,-2.7565958,-1.050307,-0.92176497,-1.9660281,0.3912696,0.16244563,0.41478,0.07885795,2.5608284,-1.3002992,0.6524037,-0.41629183,-2.5999513,0.3092951,-1.3392489,0.067340255,0.75045407,2.4220593,1.2055902,1.4775733,-0.09752745,-2.0457654,1.0549964,2.318168,-0.9579835,0.7414413,0.36084917,-0.33994135,0.15141332,1.7874513,1.062887,2.6296592,-0.93012017,0.17581244,2.3023446,1.0344398,0.46325383,-0.14110792,-0.5272077,-1.16896,1.0966545
business,-0.96792907,1.0201031,0.22997947,0.2631912,1.9937953,1.4691404,0.11419816,-0.10429253,0.67609006,1.3302993,-0.6813627,-0.9089062,-0.61284864,1.9564576,0.78979903,0.71662635,-0.03150818,-0.1345651,-0.9448384,0.48744577,-0.5729182,1.494961,1.0467157,0.44575456,-1.8128049,1.30735,1.2364602,0.30764484,1.2008572,-0.22283565,-1.308661,-0.47396544,0.16557705,-0.8207492,0.88237596,-0.6816175,0.11192801,-0.84516966,0.72655636,0.68282944,0.94984746,-1.2382557,-0.1767604,-0.6544346,0.25572827,-1.1810505,0.21711649,-0.76600844,1.047231,-0.047363646
business,-0.38908553,0.42170018,0.018244082,-0.95480454,2.221158,-0.48239017,1.0067974,-0.043037713,0.26749396,1.0595696,-1.2880217,-0.8812614,-0.38485822,0.7576697,-2.0856774,0.24099754,-1.6118549,-0.091829754,-1.1661841,0.21227305,-1.1888751,0.6433357,0.6735937,-0.29043436,-1.8890258,1.0931072,-0.108452894,0.39820462,2.093283,-0.3327425,-0.6115824,1.4259659,0.45527968,-0.1253236,0.61393255,-0.5825864,-0.09967892,-0.7316449,2.2923315,0.51050955,1.8556038,-1.3208315,-1.4348371,-0.74452007,0.87864625,0.22422025,-1.1651114,0.3516886,-0.5207836,1.4618856
business,0.3064727,0.62856257,-0.034328938,-1.2400914,1.835492,2.994177,0.06758714,-0.69194037,1.6500779,3.0820286,-1.63282,-1.9402112,-1.8162578,1.2220619,0.25697204,2.224148,-0.6496728,-0.576492,-1.527516,1.524941,-0.51396626,2.609649,1.9393822,-0.5320247,-1.9133834,0.5037132,-0.11350308,0.5382969,0.4907045,1.791687,-1.8034885,-0.5888949,-0.16294932,1.0549527,2.115374,-2.4566233,2.3334265,-0.7268093,1.2737927,1.8993626,2.6420896,-1.9088799,-2.205438,-2.0325089,-0.6852635,-0.5089143,0.89232564,-1.0639569,1.3870753,1.5467423
business,0.8627034,-0.065840684,-1.4714837,-0.7085824,1.2288512,1.2748034,-0.44646886,0.47994658,1.0179946,1.3197085,-0.9689215,-0.10460218,-0.9840764,0.593009,-0.30653659,0.7859761,-0.2436862,0.42495695,-1.0948452,0.6034272,-0.89197934,0.56833583,1.6710265,-0.7998575,-1.3466518,1.014243,0.32014656,0.6765491,0.82255584,-1.0989472,-0.85770553,0.20579444,0.31305328,0.18890466,1.7676575,-1.1911759,0.58691186,-1.4599268,0.77243507,0.9789218,0.73869276,-1.1803887,-1.3860178,-1.2165859,-0.6863021,-0.59917825,0.10909262,-0.7595102,-0.27928567,1.042394
business,0.48669392,-0.7482754,3.8584583,1.2189667,2.7002473,1.3549801,-0.14127243,1.4199705,1.4814093,1.056654,-1.0463866,-1.5278398,-0.42782927,3.046521,-2.0622392,0.44594982,-0.028916664,1.4853654,-1.004373,-0.044354178,-0.31851086,0.26738593,2.3151405,0.15982914,-2.0877538,-0.012937579,0.24635911,3.3357458,1.4173311,1.9192528,-0.988813,-1.0133607,-1.3382914,-1.3464022,1.1685706,-0.95484763,1.0685813,-0.3171405,1.5575662,2.27468,2.154674,1.3090192,-1.4569063,-0.8523534,2.070409,0.63215977,-0.45416096,0.53404146,-2.643673,2.0815551
business,0.6444744,-0.42172667,0.51441324,-0.3979397,2.776878,0.16852792,0.16904362,1.2225537,0.021384172,1.162843,-1.2667453,-0.14201488,-0.23660879,1.3075331,0.34061843,2.8087747,-0.05938899,-0.8878461,0.22731604,0.39670822,-1.9481629,1.2433318,0.64574295,-0.5986943,-1.4217628,2.0990524,-0.71650577,-0.023198398,0.46039572,-0.23822829,-1.4136446,-0.5148457,1.0176964,1.6221737,2.0631983,-0.49985403,1.7110909,-1.6485777,1.4009813,-0.34174266,1.0150553,-0.26210925,-2.6182756,-2.2102995,0.49163637,-1.941297,-0.60802764,0.4014199,0.73093855,0.9907839
business,-1.0330095,0.39078742,2.180823,-0.12194222,2.135021,1.9462298,-0.990444,-0.3085225,1.9603164,0.298112,-0.8095834,-1.4343977,-1.2675766,0.8627015,-2.067909,1.9249386,-1.201052,-0.1018342,-0.5444955,-0.6392273,-0.11990347,-0.01732577,0.4459235,1.5492047,-2.9735556,-0.043307334,-0.23162737,2.5096772,1.7351093,0.94511974,-1.2569888,0.10291565,-1.8276969,-2.5707784,2.2135453,-0.39401147,-0.48517093,0.39056543,2.433671,1.2995387,0.7020025,-0.56150895,-2.4519632,-0.38850036,0.9322143,1.4101666,0.07017135,1.2407078,-0.4139433,1.735311
business,-0.4754099,0.8297654,-2.6526818,-1.9134561,1.4334635,-0.21513474,-1.1913569,-0.7939291,1.6016247,-1.5906434,-1.066888,-1.3906252,-2.2324803,0.17537928,-0.54654694,1.6643276,-1.915083,1.327148,-1.7161934,-0.13548775,-1.7109159,-0.021473067,-1.1140198,-2.008897,-0.5562296,0.26721516,0.8470952,-1.5109859,2.560918,-0.303877,0.08823539,-0.25399157,2.1113913,-0.35529396,1.376602,-1.8205769,-0.21509987,-0.2086818,1.673222,-1.641449,1.9442677,-2.4751632,-3.3206189,-1.6405458,1.1075848,-0.7670345,0.9814807,-0.97352153,-1.0905051,0.7939864
business,0.31377923,0.3001223,-0.009047115,0.5284571,0.66207755,0.73476094,-0.041199017,0.6213025,0.7571495,-0.93144447,0.1924386,-0.42797485,-0.617091,-0.3849131,-0.9885359,1.4145133,-0.9390664,0.75586694,-0.14178388,-0.19376652,-0.62658674,-0.007884082,0.8052211,-0.37113875,-0.17396286,-0.813286,1.4256198,0.059439037,-0.498627,1.6479309,-0.06502288,0.83421695,-0.12714602,-1.2397145,0.45474198,-0.41738027,-0.33077398,0.39139786,-0.17474978,-0.9377577,1.8628044,-1.8726976,-1.7484422,-1.0671946,1.1383495,-0.459975,0.5243652,-0.11147741,-1.0763618,1.794132
business,0.48898387,-0.60402703,-0.65274787,-0.96926594,0.81630397,1.8313988,-0.27800205,0.61238295,1.1763049,1.131844,-0.14540751,0.5476174,-1.5318092,0.3729068,-0.6079776,1.5717205,-0.5087425,-0.71803737,-0.7487168,0.79271656,0.02440107,1.0215297,1.333833,0.34748757,-0.83019114,0.96874994,0.31478494,0.40225106,0.9887989,-0.30082953,-0.52054685,-0.92173517,-0.12981793,0.8207928,0.7295723,-0.6475753,1.36208,-0.019935826,-0.5365581,1.1802624,0.60013235,-1.0912477,-1.3638624,0.064978905,0.64005977,-1.342593,0.49298286,0.17084195,-0.044817183,0.56628853
business,-2.0208988,0.5372868,-0.42777783,-1.8242415,1.4881358,1.7948526,0.16456786,-0.4898236,-0.055972107,0.6087365,-2.954595,-0.7904047,-0.987973,1.6300199,0.7133751,2.3274236,-1.2991307,0.17189263,-1.1047087,1.8383138,-1.3374898,0.10916767,-0.76598567,-0.77613103,-0.81346405,0.2957535,0.87125736,0.005214978,0.32611132,1.3473451,-1.0077852,0.0050216224,0.39724293,0.12611385,1.4196576,0.21556558,0.34367374,-0.44308305,0.96585286,-0.12383684,2.8446786,-0.79974586,-1.8700348,-0.22136287,1.6175942,0.32747215,0.15359522,0.3698351,-0.07686903,0.6320867
business,0.15880606,-0.16758886,0.54832006,-1.1546181,1.749374,1.2449024,-0.38434625,0.11718103,1.1304004,2.0020964,-1.8354671,-0.15562499,-1.4484985,0.3568121,-0.7924427,2.8655343,-2.6696541,1.3578501,-0.7785341,0.61588305,-1.7410908,0.82063687,0.21790133,0.97367173,-2.6237376,0.6549994,0.35091582,0.74165624,0.8879667,0.6679322,0.15466507,-0.24757083,0.51948875,-0.6764081,1.6089891,-0.11855415,0.5227045,-0.5268849,1.8984557,1.2305437,1.6440171,0.03187712,-2.009672,-1.1735357,0.6986563,0.7866761,0.4933698,-0.76052475,-1.3604026,1.4036094
business,-0.68994474,2.1219263,0.24083614,-2.5473146,2.2626822,0.19170666,-1.1854393,-2.4390821,-0.07884278,-1.7853506,-0.8683114,-0.92177606,-4.4336185,0.16121419,-0.835741,2.195537,-1.4572343,1.4368062,0.6303647,1.5256993,0.5816086,-2.4638793,-0.7405172,-0.7725341,-0.6949518,1.5566869,1.5662779,0.37761936,2.5995717,-0.8087692,-2.8361819,-0.71194965,2.4042735,1.5506655,1.7754495,0.8717918,-0.1995056,-1.3300582,-0.03274878,-0.2773422,2.219585,-2.3182054,-2.315126,0.6723547,0.7938485,-0.05833982,2.0016818,-0.051874794,0.4724982,0.38936043
business,-0.7309938,-0.8337647,-1.9247626,-0.7280047,2.162307,0.83932513,0.59304345,-0.026396152,0.989334,1.7644929,-1.3101028,-2.1480775,-0.6789211,0.6161499,-1.390151,1.8953402,0.20348811,-0.8810653,-0.8199603,1.3336873,-0.91291016,0.93117505,0.7097392,-0.9053892,-1.7735622,2.0083997,0.46807727,0.94540083,-0.019876054,0.66009665,-1.2385082,0.26328364,0.71765333,0.64331186,1.8763678,0.23582003,-0.12022753,-1.8216453,1.0549338,-0.2579097,0.6943242,-0.19014022,0.87847143,-0.4200348,0.36624327,0.25745404,1.41375,0.44147858,-1.197243,1.207159
business,0.6292989,-0.3550132,0.44223085,-0.18188834,1.6788788,0.37520754,0.23596895,0.3808765,-0.4820979,0.11922754,-1.642154,0.014469814,-0.27753243,0.8023676,0.39588413,0.6792906,-0.56167346,0.5924767,-0.2480864,0.024996994,-0.6189938,0.10424219,-0.5824836,0.19457214,-0.12934324,0.47157168,0.8136553,0.64767975,0.32614067,-0.1270591,-0.91484404,0.28864238,0.6660702,0.18323682,0.4260602,-0.4136436,0.79606813,-1.7702758,0.39705783,0.16771449,0.19540043,-1.2599024,-0.6169553,-1.7988136,0.86841375,-2.0004165,-0.34475046,-0.17779875,-0.45725885,0.73605454
business,-2.3143237,-0.26438504,0.14491548,-0.06539476,2.0546021,-0.4921268,0.7772874,1.5308632,-1.2806021,1.3712635,-0.74943036,-0.33302295,-0.597682,1.3135287,-0.4824718,1.732407,0.32796413,1.8110882,-1.5409963,-0.012936833,0.15447673,1.4595759,-0.23709258,0.062518425,-1.0491825,-0.016970716,1.1725665,0.6087422,0.31644666,-0.19504087,-0.23664747,-1.1791543,-0.23559453,0.33585367,1.492917,0.7286128,0.5764168,-2.001498,-0.8572975,-1.6863772,1.0053041,-2.5657563,-3.1585681,-3.135307,2.216182,-0.30596405,0.9800182,-0.16322877,-0.6759989,1.1850029
business,-0.6837716,1.1365978,-0.6308206,-1.0192624,3.1201935,-0.21109852,0.10249149,0.20977348,-0.5356182,0.7211295,-1.3011026,0.14085871,-3.1054313,0.045765914,0.11848828,3.3898058,-0.71784776,-0.5521699,0.9402331,3.0688806,-0.81189984,0.29534477,-2.117546,-1.1430521,-0.8528037,1.1481416,0.1665839,0.69739413,1.9856509,-1.1713465,-0.77944815,0.2538016,1.5370058,1.2917241,1.5795547,1.4281133,-0.35437125,-0.7031661,0.6885335,0.57876873,3.5219946,-2.0564647,-2.7830925,0.77020866,1.7532529,-1.7675629,0.22131419,2.6946492,1.0892674,2.3300984
business,0.4196141,0.7150696,0.050650347,-1.3115692,1.467365,2.1977103,-0.43245795,0.05652247,1.3869292,1.4770024,-0.50403816,-0.9694852,-1.1028572,1.8695323,-0.36004603,2.1974275,0.19515562,-0.53822064,-0.8778908,1.4874274,-1.2263522,1.1312631,0.36412388,0.20836967,-1.2376652,-0.1223406,0.18167074,0.16192222,1.0506915,0.12977375,-0.8108697,-1.1927532,-0.53139144,0.6563668,1.5670924,-1.498801,1.175509,0.08005073,1.1446748,1.5751793,2.2108216,-1.1706896,-1.7298452,-0.5461665,-0.73104894,0.5700402,0.028525988,-0.33722195,0.735087,0.6665693
business,-0.4426694,1.0412798,0.096015885,-0.83448106,2.2942955,0.3631515,-1.7662747,-0.60571223,1.3493949,-1.36913,-0.5442377,-2.424515,-0.37070876,0.5863306,0.5306583,1.2643017,-1.5001248,0.58922416,-0.6798236,0.013835982,-0.096264705,-1.4062169,0.68223184,-1.8009447,0.8687408,1.2530112,3.13887,0.1222216,1.3262603,0.41277,0.7543692,1.9063964,0.36562112,0.24050434,1.5126802,-1.6180344,-0.78156763,0.66642374,1.2377809,-0.5561007,1.2794018,-0.7649767,-0.20463897,-1.5795205,1.4817687,-0.3586322,1.1316004,-0.08446204,-1.5130147,0.92528266
business,0.4787976,-0.7634506,0.43106407,0.7728939,1.3364185,0.07918967,-0.17352688,0.31091323,0.5301995,2.3522384,-0.47544587,-1.907826,-0.7716103,0.19850676,0.60915107,1.327775,-0.8763803,-0.12915486,-0.22702712,-1.6708891,-1.4783868,0.7307445,0.6028959,0.86675626,-1.4116114,-0.27590358,0.64717394,0.62395376,3.1006656,-0.53269756,-1.6113076,-1.1111096,-0.6882721,-2.4143267,2.9636235,-0.8124004,0.12073839,0.19070795,2.102732,1.7434742,0.83282226,-0.9477796,-0.77597326,-0.7899608,0.14260782,0.21616887,0.23971245,0.38948888,-0.6507496,1.6998395
business,-1.0551747,2.5972054,-0.22726494,-0.9623476,0.22344111,1.3782029,-3.0604734,0.25610495,0.34927237,-2.2845635,0.45684826,-1.3262091,-1.8059652,2.4825842,-1.1227664,-0.22415306,0.48913798,1.4554654,-0.94539034,1.1050094,-0.7194606,0.2725992,-0.29013577,1.3396943,0.18647194,1.1545626,0.98455447,1.3673887,0.26080766,0.2562215,-2.0612087,-1.5828152,2.8349743,0.6837654,-0.865169,-0.7938977,-0.044640396,-1.4360882,0.590293,-1.2515831,2.759217,-1.367065,-1.3427418,-1.2965736,0.75004935,-0.7356396,0.32157293,1.3288181,1.171337,-0.9608416
business,-1.0689279,-0.46944398,0.5267979,-0.12809758,3.5233276,-0.005826013,-1.6548553,1.2968538,0.33021632,-0.43157342,-2.1931093,-0.66701275,-1.3478632,-0.04489755,-0.7557673,1.5078343,-1.292112,1.3592789,-1.4336357,1.4864213,-0.9022394,-0.82964826,-1.8681628,-0.3602474,-0.9687802,1.4176493,-2.4650457,1.8480405,0.6610715,-0.79773295,-2.8372471,1.1621879,1.7609072,-0.32465145,1.5997194,0.003540266,0.96939665,0.75221413,0.71385396,-0.62010705,1.5180697,-0.90755117,-1.3709806,0.70152,1.3976841,-0.46243668,0.7461505,2.2964497,0.8462947,1.4036893
business,-1.1225269,-0.64432156,1.9448422,-0.0015765068,1.0943071,1.6806761,-0.48280087,0.84855574,0.5137406,1.1897968,0.31151402,-0.5503457,-0.27099577,1.102483,-1.8631356,1.1286745,-1.3237375,0.2252183,-1.7105627,-0.121152855,-0.7280186,-1.4305556,0.5152446,-0.63759136,-1.7580686,-0.30645546,1.3609277,1.9336307,1.034129,0.4135454,-0.7990912,0.15189642,-0.20796724,-0.635294,1.4309626,-0.20991492,0.7971724,0.008733237,1.3025242,0.42660317,0.31062454,-0.08816258,-1.4231548,0.10502032,0.25078142,0.56476504,-0.55124336,1.0711349,-1.7635865,0.6745895
business,-0.62826884,-0.9694319,1.5582325,-0.18131225,1.2910984,2.481908,0.2960827,-0.38572517,0.47154504,1.1088043,-0.8834007,-1.8293741,-1.0120325,1.8104938,-0.7942824,1.4124985,-1.1515722,-0.22594115,-1.1797807,0.3311532,-1.8318174,2.3145845,-0.40159556,-0.13300814,-1.7367072,-1.0039473,0.5224292,1.3726361,2.0973074,-0.16959664,0.10926458,-0.9368717,-1.0591065,0.060969252,2.9116466,0.46111363,0.4112999,-0.5917776,0.17912738,1.788961,1.5957475,-0.89809895,-1.4306327,0.3495653,1.3716406,0.043584913,1.0198017,1.2732127,-2.2312489,0.4569233
business,0.026701245,0.33308676,-0.35344404,0.6286753,1.4747027,0.5623016,-0.642427,1.2629076,1.393736,0.7711394,-1.0135674,-0.46258718,0.5849653,0.07229081,-0.37448794,2.3238866,-0.2590767,1.049522,0.0535767,-0.86308444,-1.0240521,-0.81124854,1.1671888,0.8140778,-0.46572188,0.73111606,1.1090397,1.4102087,1.7004408,0.44767192,-0.6359517,0.711644,0.2070517,-1.2783197,2.2196202,-1.621938,1.1613262,1.064017,1.4013208,0.6153499,-0.3019358,-0.01878536,0.056222532,-1.0745387,0.24270107,0.767977,-0.40851763,0.39300564,-1.7214111,0.86741775
business,1.2630635,-0.13961986,-0.77850074,-1.222959,1.1444684,1.3441137,0.50706404,0.49031296,0.97142327,1.358386,-0.78987926,-0.46509027,-2.223099,1.9916245,-0.8596636,3.7531476,0.915108,0.32261136,-1.263238,-0.5089175,-2.1505146,2.6391187,-0.3098645,0.07488988,-2.153951,-1.1444142,0.4457407,1.6035191,1.8131106,-0.09967304,-0.6742325,-0.9806338,-0.5174944,-1.225171,1.4093722,-1.4437622,1.5456666,-2.9029884,0.40773353,1.6288074,2.889635,-1.4908595,-1.7411516,-0.21086754,0.250629,1.1035725,0.24429081,1.5764673,-0.9646097,1.6539534
business,1.2770586,-0.44964507,-1.1136677,0.8504596,1.4210728,1.7268519,0.1507515,2.3031743,-0.075256914,1.5203123,-0.44178048,0.31386083,0.45790678,0.66325754,-1.9059821,0.66324794,-0.2406675,-0.036223143,-0.59521395,2.4913774,0.4690761,1.7462273,0.69032115,0.71395844,-0.16299108,0.9609304,0.017412504,1.6621478,-0.083613925,-0.34673396,-1.4120501,-0.18601874,0.13628447,0.00022708425,0.3608718,0.71380776,2.015202,-1.3414794,0.33274475,1.2125003,0.6599256,-0.39970478,-0.871273,-0.7496957,0.5829971,0.41542104,-0.26260528,-0.1809116,1.4121315,-0.34494007
business,-1.2553191,-0.3714965,0.72841597,-0.9581337,1.7973573,0.6255595,-1.1058006,-1.3392631,-0.5299714,1.4910617,0.45602968,-1.7154752,-0.76147294,1.3825234,-1.2155968,2.5090327,-1.9248464,1.2088602,-1.3008295,-0.22413035,-1.4769919,0.22574453,-0.3308185,0.79206526,-1.7563996,0.083053224,0.7221697,1.3125632,2.130379,-0.32374513,0.04961061,-1.2527703,-0.12390618,-1.0557166,3.103689,-0.9899233,0.14705177,-2.2411745,0.8169729,0.6285852,0.43212172,-1.2248161,-1.8097816,-0.47423133,0.68207276,0.75333226,0.4882553,0.46162456,-1.222059,1.7970874
business,-1.0146033,0.14033483,-0.6673664,-0.62195235,1.250052,1.3084877,0.17909306,-0.99181795,1.3639683,1.6531345,-0.2095714,0.23253734,-0.907553,2.542402,0.023867419,1.7924923,-1.1952183,-0.18293487,-0.18043448,-0.06500728,-0.20066938,1.2801547,0.5168963,-0.9579728,-2.6601136,1.0071417,0.6625313,1.391769,2.0364964,-0.94309986,-0.040062737,0.35235652,-0.56688637,0.38948232,1.5371363,-1.1283771,1.0322113,-0.5049469,1.2456125,1.8791641,1.729141,-1.5857728,-0.51572055,-1.3906376,-0.766216,-0.40287668,0.94148105,-0.40239283,0.50203013,-0.38660622
business,-0.6775456,-0.5613885,0.64755946,-0.04057729,1.2469096,1.9373853,0.90247446,0.1233795,-0.003678145,0.74190545,-0.6517961,-1.6694155,-0.2225103,1.5591589,-0.1917742,0.97974825,-0.94710124,-0.2425504,-0.8273984,1.0748439,-1.600407,0.75975895,0.62759405,0.74571955,-1.2292815,-0.27783307,0.6244597,0.41006538,0.83859557,-0.38234574,-0.75354767,-0.2966169,-0.7260883,-0.5531903,1.5621766,0.29497245,0.122893475,-0.22154053,0.39542717,1.3070583,0.99406886,-0.8936731,-1.289566,-0.37560263,0.4890676,-0.30889857,1.1049725,0.62556547,-1.4783877,-0.09013491
business,-0.30460235,-0.1445586,-1.457187,-0.2768464,0.27646998,1.7797468,-0.3323092,-0.26016977,0.8275061,0.28886437,-1.0171674,-1.0914147,-2.2590508,0.3173507,-1.1287578,0.53699225,-0.8266163,-0.14897318,-0.8084512,0.6683956,0.37760833,0.6125326,0.68381363,-0.53289324,-0.8093001,0.6970692,1.0487874,0.6562487,2.0482585,-1.2397348,-0.9202662,0.037374962,1.0834937,0.01665874,-0.16835058,-1.3393767,0.37046254,0.048110563,0.8301651,0.3177755,0.95053446,-1.8604127,-0.65983176,-0.6061214,0.4127826,0.007083839,0.4896792,1.0393543,0.3968581,1.6805841
business,0.33969373,2.1134226,0.7487076,1.2817699,1.6821626,0.06430422,1.1713022,1.2549866,-0.4359159,-1.3770063,-1.7391181,0.14049107,2.5594447,2.6901414,-2.050655,1.0361673,-3.7358449,1.9681038,0.19135779,-1.4541548,2.0726109,-3.7915344,-0.2504842,1.1770566,-1.9738938,0.8483207,0.4235657,1.4411016,2.4329093,-0.019420281,-2.0764236,-1.1689492,-0.23326214,-0.53041476,2.9232326,1.9434152,0.6877007,1.7357352,1.0930105,0.99073464,0.2509818,-0.12275622,-1.6538851,-0.93370605,0.8842433,0.20303461,-2.5640216,1.8535364,0.8724612,-1.5270398
business,0.010561795,-0.027492756,0.8354056,-0.7769389,3.003815,0.19725186,-0.47188684,0.39061376,-0.30491683,-0.044288874,0.1625752,-0.96414775,0.12153269,0.29501805,-1.5166868,2.3540936,-0.38697633,0.8624679,-1.2435802,-0.12133383,-1.4280791,-0.68468314,-0.33944255,-0.24819909,-0.5868834,0.63037854,-0.19363864,1.1874468,1.3767605,-0.26825663,0.5759885,-0.19371603,0.3725474,-0.14872597,-0.14876541,-1.79188,1.3291556,0.44150743,0.8820577,-1.4000694,0.37180963,-1.6847395,-1.3456196,-1.88722,0.19743627,-0.5692805,-1.3286363,1.6229211,-0.53670686,-0.08452266
business,1.2577895,0.6294062,-1.7625265,-0.54146576,1.6122267,0.86393154,1.7983835,0.7771946,-0.055066116,0.046953075,0.36891922,0.20524722,0.19939917,-2.1999009,-0.8093417,0.7036117,-0.07326055,-0.14540857,-0.43297884,2.3650963,-1.1245505,0.583222,0.5640504,0.41340297,-1.5377381,0.24876826,0.2540056,0.97603995,1.1345532,1.4683019,0.04993698,-0.07205053,2.695931,0.35672414,0.24126253,0.5972348,1.0825341,-1.05249,0.72627497,0.68110853,3.1460233,-1.6987422,-1.628291,-1.743876,1.0456996,-0.8258542,0.6119912,-0.8616686,-0.21842548,0.9507059
business,0.4131453,1.1392269,-2.1419396,1.2798649,1.4541607,2.241528,0.9070673,-1.4583709,1.2411398,2.8282554,0.35631597,-1.112712,-1.1910143,0.86577654,-3.1843748,1.7577393,-0.4528588,-0.79306847,-0.19458017,2.2886984,0.54558784,0.40824574,0.12561594,0.48423937,-2.0033185,0.8700342,-0.049993284,0.8270457,0.4245118,0.25726938,-1.1843555,-1.865331,-0.41762188,0.10095285,-0.0076071466,-0.29013285,2.5665307,-2.3104255,0.57742995,-0.5887415,1.0320078,-0.50210685,-2.7612295,-3.5503314,0.9477584,-1.0013804,1.0264951,2.0637598,3.6411138,0.3598687
business,-1.185331,-0.34608006,-0.9800634,-1.0940427,0.7598165,0.46810505,-0.4785242,0.8074081,1.5772357,0.5144722,0.17753568,-0.8207237,-2.4341853,1.252515,-1.4391578,0.073977865,-0.75027025,-0.8648834,-1.9986188,0.51543534,-1.2204634,1.5043238,-0.602753,0.013387419,-0.9977847,0.20618913,1.4944943,0.8136555,2.40751,0.48565558,-1.2618866,0.1469682,1.8395572,-1.439265,-0.18360747,-1.2450655,-0.6680347,-1.4880158,-0.008270865,-1.3776933,0.13201223,-2.477706,-1.5197066,-1.1300408,0.5233549,-1.0517738,1.3515388,-0.021692175,-0.8331922,-0.4223193
business,0.720844,-0.68910986,1.0113324,0.23545985,1.9520522,0.12886922,-0.3005759,2.2522357,0.46866032,-0.23280866,-0.029679727,-0.8756388,-0.6717115,-0.22191009,-0.9065206,1.6765563,-1.4934666,-0.47917414,-1.0766119,-1.5543028,-0.689893,-0.7940087,1.2905418,0.30919576,-1.91999,0.31408805,-0.08469653,2.2193134,1.1895347,1.0386049,-0.41750777,0.41025844,-1.3355395,-1.4016453,1.3554933,-0.34634584,0.7751037,0.5982943,1.5401748,1.5432113,0.5127717,0.620007,0.22567739,0.16601798,0.81834435,0.16962633,0.66666573,0.64113224,-1.9674971,0.11824833
business,-0.6536662,-0.4194467,0.9673422,0.24264263,1.8082678,2.8651795,1.2301079,-0.114024036,0.7821068,0.9103646,-0.83150744,-1.6201751,-1.4237446,2.141117,-1.0297394,1.1926659,-0.87649685,-0.60409236,-0.36527026,0.26242447,-1.3688754,2.0534606,-0.21599689,-0.22816227,-1.9415803,-0.4000498,0.7574197,0.8090447,1.36439,0.326248,0.12456898,-1.4649966,-1.5504466,-0.3446154,3.1863441,0.63831264,0.6125697,-0.86824375,0.3597364,1.0821319,1.4981515,-1.053061,-1.1104368,0.038732026,1.2865939,0.35350078,0.10360775,2.029364,-0.58330643,0.6757106
business,0.98591644,-1.3523602,0.8831066,0.36543682,1.1385796,2.6581686,0.16349635,1.6192906,2.377507,1.7362103,0.08146581,-1.3751758,-1.3731077,1.4006779,-1.3852835,1.8219831,-0.55814356,-0.020661911,-0.42613494,0.034694236,-2.1323867,-0.27028432,1.6614515,-0.10438055,-1.7689619,0.36258212,0.5311168,2.248162,0.76924133,0.48174584,-0.9295428,-0.7462961,-1.0085181,-1.4325212,2.0264006,-1.458111,0.09779006,-0.5949393,2.4515758,0.09036275,1.091165,0.95664793,0.0651947,-0.16870844,0.8182223,1.8547338,-1.3881572,1.0342212,-1.415844,0.63525724
business,2.011293,-0.108261906,-0.08992986,0.69509584,3.2636938,0.578283,0.14998262,0.5876894,0.40056103,-0.42961437,-3.1886218,-1.034556,-0.43273944,1.4402845,-0.15865684,0.7424238,-1.5587524,-0.54123265,0.8372342,1.0465857,-0.59143645,-1.0633848,0.2774334,-0.6390089,-0.14746992,0.39123857,0.514202,2.902573,1.5783625,0.715454,-1.7055885,-2.367286,1.3277986,0.57386196,1.5174214,-0.050157797,0.20365505,0.36995682,2.617145,0.17204642,0.6202333,1.8448226,-1.9140177,-0.78238386,-0.050480198,0.11936192,0.42783102,-0.12795301,-2.0095835,0.04472153
business,-0.031484213,-0.52702045,-2.4905252,0.13079338,0.9746149,0.13147177,-0.77817845,-0.40723404,0.02243996,-0.5358995,-1.7914762,0.15185581,-1.4070376,0.35011378,-0.5213857,0.50615484,-0.98723406,0.54806393,-0.6807811,1.2918403,-0.73322856,2.9328084,0.03339785,-0.5054095,-1.7788931,1.1720158,1.1365916,0.600005,0.19162607,-0.752535,-0.40777266,0.09399781,0.7703062,-0.44836414,-0.34970886,-1.0890937,0.034335066,-0.86637646,1.9933524,0.2969331,2.658275,-1.8152575,-0.7295627,-2.7727122,0.9156292,-1.121843,0.048127167,-1.1834345,0.91150284,1.3684486
business,0.76958346,-0.9319546,1.0997678,0.2570942,1.0518081,1.566519,-0.7948083,0.72138345,-0.077378504,0.2939603,-0.0111022135,-1.5265156,-0.73094887,3.8414743,-0.03730149,1.3344221,0.04393751,-0.22184063,-1.140327,-0.38950178,-1.9097857,1.70582,1.909733,-0.008093106,-2.6277833,-0.28405035,0.13045993,1.9767704,1.1040205,0.5061819,-1.0307149,-0.81124514,-1.6156592,0.2919195,1.566847,-1.7124611,0.8976829,-1.7690549,0.41381428,1.2233591,1.2640857,-0.097389564,-1.2947584,-0.6395681,-0.8202109,-1.3010681,-0.8102522,1.1210324,-1.2951254,-0.5594413
business,-1.5148765,0.62453955,0.4419231,-2.185698,0.83433765,0.58970857,-0.9360978,0.0441405,-0.4278383,-1.7060401,-1.9438314,-1.2294505,-1.9324305,-0.08102388,0.079136945,1.5144931,-1.1293564,2.6126475,0.09752944,1.1758987,-0.13771705,-1.7751203,-0.71228105,-0.87828344,1.3026549,1.8564914,1.9016238,-0.08648648,0.75172263,-0.903261,-1.28499,0.015663736,1.4197134,-0.31593198,-0.9361602,0.52661675,-0.14031254,0.027739277,0.023331583,0.16697688,2.2374053,-0.85799915,-0.68359804,1.0705663,0.5259678,-1.2425721,2.1202798,0.4983392,-0.84460104,-0.09959478
business,-0.9322475,0.1407921,-0.6853621,-0.37519422,1.3012197,0.71070397,0.536698,0.30378178,0.4311736,-0.22156557,-0.38388753,0.33877918,0.34076083,-0.51488996,-0.9904038,2.475163,0.9919727,-0.14671439,-1.0294152,0.22872598,-1.3139838,0.8145194,0.35011217,0.060634576,-0.65998876,0.64738685,1.3806785,-0.11442112,0.15169977,-0.29132992,-0.42938304,-0.94863325,0.52145934,0.23589201,0.88320386,-1.0685626,0.5224462,0.9264773,1.236848,-0.4309443,1.7776836,-1.5086521,-0.93678355,-0.68935704,0.71132183,-0.6366429,-0.2667183,-0.42804202,0.13177076,0.06478982
business,-0.48981136,-0.7918652,1.7166446,-1.2279112,4.9202833,0.26566866,-0.048399784,-0.32504064,-0.92111874,0.31913343,-1.8013281,0.13007554,0.36994058,1.221247,0.33199087,2.7127807,-0.883097,1.4010663,0.6000339,1.7976073,2.2008011,-1.348933,0.40777695,-1.3776821,-0.34809083,2.2125642,1.563047,1.6863863,1.3137988,0.5609242,-0.134413,-0.9987091,-0.6631784,-0.10017059,3.458649,-1.1607033,0.057978522,-0.2148365,0.7961731,-1.2356544,1.3414421,0.811495,-2.1393142,-3.117321,1.4472226,-0.5444283,0.4143346,-0.040034156,-0.7586043,-0.16165946
business,-0.21516334,1.1347377,-1.4792886,0.02008799,0.8947717,1.7897053,2.137877,-1.3236722,-1.2292229,1.3656554,-0.37165433,0.03243636,-2.7457583,-1.4023032,-1.6905006,1.3763293,-2.2047133,-0.63438547,-1.2856796,2.3388093,1.5397165,-0.09376777,0.71130013,1.1629863,-1.2754266,1.2576268,1.3350198,1.323134,0.44760486,0.55822426,-0.8602643,-0.5237818,0.40073517,0.19987606,1.219086,-0.6110643,0.6739504,-0.86883587,1.4765713,-0.5603648,2.6899815,-2.0905704,-1.2701356,0.41826963,0.183762,-1.3902698,0.9623652,0.19822475,1.3705468,0.9521621
business,-2.727973,0.21773466,-0.5339675,-0.7369182,0.76690215,-0.9453238,-2.713504,0.7661759,-2.0098217,-1.557372,-3.2863805,-1.2069416,-1.9269714,2.1755023,-1.2757959,-0.7602346,-0.40268344,0.15307553,-1.2331609,0.019500423,-1.2110839,-0.19911762,0.8121778,-1.7216817,-1.4665563,0.74522156,2.3773983,0.019134352,4.1934104,-0.1148641,-2.558812,-0.21250415,1.796882,-0.36882135,-0.6960983,-0.6093477,-0.7803215,-1.8394474,0.20229094,-0.33418876,1.865619,-1.0464888,-1.8844343,-0.10876097,2.3996544,-1.3360264,2.142692,-1.2687361,-1.4198351,0.4033486
business,0.095781334,0.19544475,-2.367601,-0.91753244,0.5868766,2.0078266,-0.30308947,-0.81163543,0.99690557,-0.37867254,-1.7061012,-1.3180428,-2.2263446,-0.59324086,-0.48597312,1.3559983,0.40554765,0.599456,-0.59007883,2.0938978,-0.83136076,0.7508751,-0.24790198,0.32648462,-0.56832397,1.5818939,1.8860717,-0.46997967,1.6553078,-0.0761278,-0.38383922,0.00016873986,0.6806466,-0.6963553,1.6850181,0.1712388,-0.15825666,-0.6664668,-0.9278412,0.07104847,2.7265096,-2.3334792,-2.1350965,0.2520949,0.9051734,-0.14262749,0.29998323,-1.1001313,-0.36445853,1.9081144
business,1.8318638,0.20538072,1.9715337,1.5172832,2.3587937,2.6087122,0.2869854,0.4206442,2.295196,1.9284143,-1.7815306,-0.92524785,-0.056720972,2.539544,0.2686239,1.6287729,-1.4426246,-0.4856915,0.9043494,-0.85168254,-0.08819834,-0.2947865,0.86242914,0.39548942,-2.50732,-0.55157024,1.0208054,1.1230537,1.8117605,1.2739612,-0.4374581,-0.20199719,-0.942943,-1.1587065,2.1064606,0.004291344,-0.76692593,0.85569566,1.9433889,1.2956581,1.6921836,1.177234,-1.8840518,-1.2262768,-0.05378273,1.4932252,0.6361121,0.75937396,-1.5355005,2.1597545
business,-0.9648545,2.114927,-0.8136136,-2.0796175,1.3864143,-0.021550199,-0.43653753,-0.81909984,-0.36204815,-3.003139,-1.3844895,-1.4756731,-3.9195075,0.27271155,-1.0525408,2.0481985,-1.5920377,2.5591972,0.78666365,2.5186868,-0.26776552,-1.168679,-0.66743976,-0.969208,-1.1915448,1.0082583,1.6988205,0.64280146,1.8712089,-1.0799401,-1.1455798,-0.77623296,1.2460282,1.1538849,0.91923326,1.1240276,-1.6849921,-0.61468583,-0.33574507,-0.4524914,3.2384236,-2.73619,-2.6242414,1.0763825,0.7993846,-1.0919696,2.5107555,0.9471571,0.79026747,0.75359464
business,1.4777099,-0.34787622,1.2527658,0.18346824,1.7679453,1.3623552,-1.2388035,-0.13433926,0.70496106,0.84633404,-0.35623175,-1.6503848,-0.32306454,1.3253667,-1.2383859,1.8010236,-0.15578626,0.032512598,-0.39228627,0.10791198,-0.40335315,-0.85685205,1.2730393,0.679725,-3.1472805,1.1297957,0.39262155,1.6703253,2.4999042,0.7342336,-1.6686018,-1.1094861,-1.2975392,-0.68333143,1.6312046,0.36524925,0.4078926,1.1249595,2.091308,2.0689785,-0.23983432,0.5685207,-1.894041,-0.4742856,-0.5405074,0.7683039,-0.48375413,0.5055797,-1.5630444,0.851963
business,2.5225837,1.0453309,0.08959283,0.12294613,2.2493877,0.5825266,0.48325184,1.365019,-0.09301682,-0.29179338,-1.0956099,0.5939339,0.36664918,-1.2948052,1.3785737,1.8578477,-1.6272603,0.18954897,0.3479028,0.97467893,-1.38879,-1.2410996,-0.49544197,1.8214959,-0.112678275,1.3964378,1.2410227,-0.13912448,0.61042124,0.4759785,-0.7047324,0.072489545,0.719347,-0.120894186,1.6788808,1.1394184,-0.42928162,0.22296734,0.82546806,0.3552343,1.721191,-0.9014682,-0.29222143,-1.2921407,2.0192733,-0.33439666,0.7745948,-0.69151527,-1.4265128,1.5317705
business,0.7253329,-0.8334069,1.3226117,-0.9353087,2.3789406,1.4151745,-1.0130429,-0.5068949,0.12366506,0.5696841,-0.30416322,-0.5832678,-1.1757293,1.0256485,-0.049904898,2.231841,-0.21067512,0.4299362,-0.7320418,1.6534051,-0.09527543,0.6026508,-0.5634287,-0.13536571,-0.77783406,0.33457243,0.9854426,-0.91140044,1.8464499,-0.16916847,-1.2432321,0.49356103,0.35056308,-0.22388734,0.94046986,-1.2035382,1.0968887,-0.20674875,0.81371415,1.1153522,1.1985329,-0.55396837,-1.2866205,0.83221763,-0.3637292,-0.6629583,1.2405239,-0.43882173,-0.9228633,0.7197148
business,-0.04318017,0.08776742,0.88454217,-0.3219171,0.9975756,1.0990471,0.6964065,0.8493467,1.823387,0.48201808,-1.1625499,-0.84946275,-0.31491497,0.6832806,-1.613797,0.5100822,-1.2987092,-0.46114737,-0.757638,-0.65336144,-0.3722438,1.4430069,1.6022656,-0.18356618,-1.0732028,1.0794076,0.04612436,1.6467935,0.59830356,-0.62325925,-0.07979546,-0.5864703,-0.43041936,-0.6569654,1.620676,-1.0941923,-0.40208524,0.11304308,0.84117246,-0.025668606,0.59880114,-0.6632713,-0.280687,-2.393841,-0.13030052,-1.1374713,0.07308471,0.71923923,-1.2343906,1.2012053
business,0.0700388,0.9059816,-1.1809632,-0.74397826,1.6315695,1.35607,0.9023424,0.26645374,-0.0785193,0.54448795,-0.51869655,0.41296822,-0.569522,0.5217136,-1.2922866,2.454586,-0.2541543,-0.07182406,-0.98223484,1.0892935,-1.6870034,1.0095125,0.5039237,0.26293615,-0.87228215,1.0908644,0.772296,1.2630758,0.17247513,-0.065164,-1.2338938,0.49062845,0.643946,0.15779924,0.6359821,-0.8548377,0.62802255,-1.4917045,0.01336664,-0.57769,1.1387495,-1.6019888,-1.9621767,-1.0524067,0.23877881,-0.6047839,0.324028,-0.40432394,-0.8367657,0.5549896
business,1.0267366,-0.48135123,0.4616068,0.5423482,0.8155234,2.3706264,-0.6393935,0.96279603,0.95697993,0.8519473,0.80382276,-1.4060112,0.34943953,3.0537386,-0.9440103,1.4824257,-0.011970284,-0.053974107,-1.782662,-0.2680637,-1.9436518,0.48790556,1.2654923,0.2920496,-0.80888957,0.6646364,0.21988899,2.4250565,0.7794003,0.609807,-0.9157211,-0.9468239,-0.42045206,-0.76513124,2.5093756,-1.5039799,-0.13542882,-0.21137063,1.8685253,0.9326109,0.66500944,-0.33920643,-0.79459405,-1.2126148,-0.1394594,0.18538827,0.1274206,0.1276804,-0.77654153,0.60781115
business,0.3890296,0.9037329,-1.4431448,-0.8319699,2.500313,1.3147901,-0.15501407,-0.35410494,-0.4671084,0.5810063,-0.9388505,0.18119279,-1.384646,-0.17037109,-0.41185704,1.3073592,-0.5232018,0.7751352,-0.12575048,0.28816277,-0.5113887,0.15854473,0.15980539,0.6380941,0.19823822,0.7325572,2.508222,0.6322215,1.0179937,-0.039841674,-0.6146078,-0.41427997,0.13436623,-0.19561258,-0.6478234,1.0924437,0.39758912,-0.7496229,1.7576774,0.75453824,0.38493958,-0.9026352,-1.8082448,-0.47547588,1.2584503,0.5849691,0.4046209,-0.50529635,-0.028143557,0.68870646
business,1.2273809,-1.2066256,1.8187366,-0.09061105,2.3158765,-0.13571315,-0.43945083,1.645215,1.00696,0.9691874,-0.1922641,-1.3911408,0.947146,1.5671581,-1.6846159,2.5912395,-2.0407953,0.37569574,-0.7449399,0.7838364,-0.8675414,1.1872175,0.09977215,-0.011730882,-0.20062354,-0.37590227,0.20509276,2.4078352,1.3978322,-0.1419544,-2.26042,-2.6623437,-0.124580145,0.06312824,2.6217012,-1.2715073,-0.607861,-0.5617951,1.673011,-0.21086927,0.18870725,-0.7850053,-0.6572055,-2.2480576,1.074135,0.18601276,-0.8958757,2.9978883,0.41712126,-0.1743228
business,0.33929464,1.2200794,-0.9239442,-2.2714524,1.451518,2.0655138,0.9773014,-0.49225086,0.94451386,1.6913772,-1.1619481,-1.7945908,-1.310954,1.8633641,-0.9953577,2.3175762,-2.5024369,0.27580097,-1.6985786,1.1593648,-2.261085,2.7340186,0.4139394,-0.15876634,-1.4898158,-0.5987392,-0.27356648,0.4920049,0.36110952,-0.798089,-0.55704814,-1.9576191,-0.8001193,0.83074933,2.519226,-1.3607435,-0.44973886,-1.3008955,1.5083477,0.65320426,1.8593371,-1.1565629,-0.9062454,-0.6402279,-0.22207461,0.4275877,0.26933184,-0.019684918,0.9509306,0.6007975
business,-0.9326457,-0.83863026,-0.42241207,-0.91921127,1.3352151,1.8164243,0.46668938,0.11127514,0.03724855,0.4608982,-1.875643,-0.13828704,-1.1093644,2.6638193,-1.6655471,2.8208184,1.5350877,1.0244446,-0.22854896,-0.07234092,-0.79601026,0.49904358,0.114702955,0.62552214,-1.921728,-0.80945826,0.6993743,-0.49298474,0.9210279,-0.3649538,-0.047052264,-0.28320226,-0.090462305,0.29078186,0.52257586,-1.3947678,0.15318544,0.48232523,0.20881638,-0.23879975,1.4954683,-2.1145656,-2.8008974,-0.5543569,-0.35390753,-2.1462371,-0.026114317,0.6056814,-0.531977,1.0770257
business,0.12510325,1.3237444,0.7834451,0.12219559,0.7741291,1.6876365,-0.10112393,0.8420782,-0.033656992,1.2139939,-0.104083285,-1.0286971,0.442651,2.2081158,0.56086314,1.7627336,-1.4401723,0.18652748,-0.35459927,-0.24701023,-1.0187694,1.208168,0.84935373,-0.64862543,-1.0110095,0.60157746,1.1188744,1.7527155,1.046515,0.6502171,-1.5278095,-0.8397128,-1.3703376,-0.8583401,1.5872194,-1.1857516,-0.15780666,0.18162161,1.1360782,1.4553145,0.96515816,0.4740257,0.07239785,-1.7893801,-0.36740315,0.7358161,-0.32755783,-0.36388814,-1.3464471,0.9362992
business,0.45408323,1.223537,-0.09203357,-1.3257291,2.2524304,0.70572376,2.1858592,0.03787062,-0.41969007,-0.4675447,0.74716085,-1.1407614,-0.6637378,0.500212,-0.5359051,0.88134146,0.3472782,1.7679627,-0.82423943,-1.4941866,-0.26830184,0.77317315,0.27510762,-0.33700752,-0.61992055,0.50323385,2.5650346,0.83450866,1.613722,-0.8185066,0.08122556,0.3582207,0.7770593,0.16986857,0.3035157,-0.8951554,-1.0108763,-0.05837519,-1.1110717,-1.3041039,1.1687361,-0.87956005,-0.088748485,-3.0336545,-0.42960533,0.066961065,0.41474092,1.8850422,0.34815887,-0.5156759
business,-0.54287297,-1.9810891,0.34277916,0.5930725,1.7125344,1.94042,0.030500557,0.45842126,2.0420532,2.5827253,1.2166319,-0.074059136,-0.2778301,2.267631,-1.8043066,1.2976191,-0.3433399,-1.0572124,0.014977633,-0.53129333,-1.653876,0.63505685,0.60319966,0.05576243,-2.1364515,-0.29224744,0.083452284,2.5143254,2.0547328,0.44285905,-1.4334363,-0.6890556,-1.5772841,-0.30878136,3.1951454,-0.36505848,1.6990407,-0.7409914,1.6447978,1.3470228,2.0741708,-0.14578672,-0.027576007,-2.3351252,-0.12215673,-0.010556329,-0.53995407,-0.5787586,0.6185312,1.6762549
business,-0.32016096,1.9329228,1.1598036,0.8086375,2.3474638,-1.2597939,-1.104021,1.1972566,0.26129508,-0.9938886,-0.2789619,-0.60088205,-0.64847106,0.7295131,-1.355322,1.4001075,-1.8890086,0.624014,-0.20934786,-0.4416737,-0.52612895,-0.9375874,-0.30405337,0.7205004,-0.6282969,0.7067788,0.45001668,0.49526075,-0.3777935,0.69319475,0.14946648,-1.9019527,0.5997723,0.80337274,0.664812,-0.33018368,0.51934606,-0.29797757,0.802507,-0.49914575,1.418513,-1.89565,-0.97593284,-0.68103784,2.3385828,-0.97393405,1.027679,0.33663893,0.49731734,-0.2995746
business,1.1246693,0.014431145,-0.66242754,-1.0462748,1.2469554,1.1554408,0.41234013,0.32871094,0.1976795,-0.50313616,-0.9010021,-0.45528683,-1.3631775,-0.42722306,-0.50920254,0.6867397,-1.6820858,2.0253553,-0.52102876,-0.07990479,-0.7553654,-1.2990419,-0.9663602,-1.1788551,1.1211375,0.9617016,2.1308687,0.32269034,-1.4875958,0.47337714,-1.4401236,0.3466895,0.6630918,-0.61034435,0.201959,0.9432713,-0.5010855,-1.4663339,0.96504796,0.8898171,2.3269303,-1.5728264,-1.609462,-0.12246642,1.2862264,0.5959855,-0.17569187,-1.235846,0.4838687,0.65346783
business,-1.835733,-0.8346998,1.099605,-1.0982045,1.0254624,0.9841291,0.2516208,-1.2550166,0.86855114,1.1261863,0.16028906,-0.80238444,-0.07852746,1.3795968,-0.9653424,2.9013958,-2.528775,0.94829565,-0.7886665,-0.5910126,-1.6643375,-0.009788893,-0.18993443,-0.1728865,-2.1507936,-0.21016788,0.9250179,1.5357438,1.9503446,0.18905416,0.30896875,-0.6171603,-0.76431805,-0.65358126,2.6263359,-0.667844,1.0698384,-1.0829169,0.86248124,1.2118688,0.6918325,-0.89998686,-0.92196023,-1.0772243,1.0861886,0.565543,0.5700096,0.87764966,-1.2183508,0.6615242
business,-1.4171636,0.468806,-0.5139453,-1.1983188,3.1956303,-0.07668933,0.41633308,-0.5692162,-2.7404194,-0.7498437,-4.2817626,0.17399755,-2.1619773,0.87858856,-0.09211927,1.5432149,-0.43408233,2.3155375,0.76418453,0.66842747,-0.27944204,0.5495531,-1.9232725,-1.1318992,-1.4607414,1.4132532,3.0154467,-0.48670587,1.98227,0.33447936,-1.1230224,-0.13595058,-0.18672897,1.3884422,0.8167548,-0.49040818,0.5921407,-1.9498031,-0.14613211,0.0052879807,2.6337929,-1.5322653,-2.4256146,-1.4480456,1.139781,0.008920569,0.46954092,1.028061,0.5981756,1.3218076
